1005 128
160 0.048092768 -0.34569657 -0.01041373 -0.030965341 0.0023729543 0.23586333 0.07349922 -0.18758708 0.11888202 -0.15356506 -0.18967019 -0.11426673 0.03225736 0.12827516 0.0202521 0.0010578231 0.15984443 -0.0074647614 -0.07617663 -0.19396704 -0.04509263 0.21478443 0.100655094 -0.16601044 0.21402958 0.0006877093 0.14804444 -0.036901534 -0.23030116 0.060292095 0.0073823575 0.047876194 0.07925046 -0.102695644 -0.0385703 0.16998374 0.053676356 -0.102214694 0.07352083 -0.11459938 0.15699951 -0.10075796 0.08219359 -0.15211557 -0.10819201 0.18454663 0.06830679 -0.07971196 0.109238274 0.14109956 0.0011855807 0.034125548 0.07449143 0.14838181 -0.08141465 -0.07377957 0.11281089 -0.05412528 0.0870841 0.06110611 0.04729327 -0.0019583623 -0.10967765 0.015911125 -0.20478852 0.057262532 -0.09586366 -0.002476319 -0.2130147 -0.12972456 -0.056373198 -0.10539868 0.025654813 -0.17969158 0.2296953 0.084983416 -0.08404769 0.29829714 0.049322788 -0.1154453 -0.018593121 -0.11600567 0.23523861 0.03934915 -0.10154122 -0.18166305 0.185193 -0.05708437 0.12955604 0.026186628 -0.10869757 -0.00593618 0.07318168 0.15722255 -0.027800344 0.12902404 0.08088221 -0.1331254 -0.08974288 0.13535213 -0.06784675 -0.1130878 0.08645923 0.13738368 -0.11325879 -0.105203725 -0.129083 0.261179 -0.03632315 0.069485106 -0.104748785 -0.05482831 0.014156679 -0.047501065 -0.06337906 0.15043698 -0.06441762 0.20929937 -0.09276139 0.09446837 0.02327018 0.02453518 0.18600702 0.10773129 -0.17085193 -0.17454219 -0.13211326 0.24579723
121 0.10534922 -0.18463434 0.031352337 -0.023166863 0.06943523 -0.003846189 0.09134404 -0.11059057 0.07395294 0.016958008 -0.10623865 -0.054508753 -0.24014048 0.21704616 -0.032374907 -0.059877366 0.11871445 0.13688616 -0.083773024 -0.1130101 0.0870743 0.33075264 0.09602847 0.038581148 0.25288227 -0.026388643 0.13321377 0.057102922 -0.022953726 -0.16211876 0.2075525 -0.040113606 -0.016216608 -0.11759808 -0.0036566944 0.13327174 0.2144899 -0.09604775 0.11629731 -0.25260928 0.08191063 0.16642174 -0.04751427 -0.2041535 -0.09749763 0.14274935 0.0029798234 -0.1951629 0.005302133 0.119826876 0.05695973 0.017414836 0.1765477 0.09247598 -0.014398768 0.092998505 0.07746298 -0.18338668 0.0032089085 0.23020092 -0.03352246 -0.14973383 -0.17250718 -0.060884222 -0.06611044 0.06536261 -0.0537771 -0.044053856 -0.21164887 -0.15281114 0.12962429 -0.078497574 -0.052408207 -0.21441908 0.18872058 0.16005006 -0.0648263 0.09487149 0.09119241 -0.050031018 -0.041279323 -0.2394289 0.18172176 0.0654316 0.1477286 -0.115599364 0.12941448 -0.12914002 0.117988676 -0.0012125645 0.023233647 -0.039478198 0.27851728 0.16866694 -0.036473826 -0.02358966 -0.032220364 -0.11300094 -0.03165007 0.10119224 -0.13331069 -0.094458714 0.11487655 0.07379983 -0.10165461 -0.18076295 -0.2311098 0.15131009 -0.01859516 0.0686402 -0.1724862 -0.065048985 0.1118359 -0.07073931 -0.01764069 0.016072657 -0.22489674 0.24906443 -0.22694203 0.11715653 0.0115588615 -0.02154695 -0.050562847 -0.0007077325 -0.13160275 -0.16883726 -0.14193751 0.034475964
82 0.06314386 -0.28951824 -0.062309537 -0.12287712 0.08807157 0.04699359 0.15025094 -0.12311557 0.0501694 -0.09187355 0.00048361666 -0.052949663 -0.19394341 0.26864588 -0.023985242 -0.050770503 0.127558 0.049119245 -0.0892606 -0.30086222 -0.09686706 0.31052804 0.0714454 -0.029149659 0.3353615 -0.015035499 0.009307862 -0.051121384 -0.07157617 -0.07914288 0.06639187 0.0978972 0.10185442 -0.056740005 -0.026413595 0.03633994 0.10538962 -0.050613258 0.20125982 -0.29669204 -0.028545259 0.039097793 -0.060685914 -0.22763954 -0.12879452 0.14466873 0.052900173 -0.19067124 0.04060626 0.009822373 0.06827674 0.039719336 0.07477692 0.055733614 -0.0021869233 -0.09228663 0.052514307 -0.19891734 0.062449437 0.19358006 0.018402144 -0.028427955 -0.06264485 -0.030477574 -0.1819159 0.11756871 -0.023056543 -0.015685799 -0.28283206 -0.10030177 0.04447736 -0.09437957 -0.10505679 -0.19636565 0.2074016 0.19654031 -0.08303236 0.13620397 0.13731547 -0.13422742 0.120428294 -0.26838326 0.13403659 0.11075763 0.0014350759 -0.10858262 0.11825374 -0.021494772 0.028338565 0.042266432 -0.03663941 -0.052006446 0.3129074 0.023999473 -0.066623606 -0.014072939 0.01872504 -0.15895943 0.06049554 0.066150166 -0.066974916 -0.22083828 0.11469887 0.17013183 -0.0868958 -0.0841723 -0.23341462 0.20702198 0.0465821 0.19147962 -0.05212596 -0.0378391 0.007003686 -0.019117799 -0.022192061 -0.0009875989 -0.19243884 0.22685522 -0.19425324 0.077865645 0.024371052 -0.04108454 -0.03916749 0.026501773 0.01599205 -0.040256333 -0.16308077 0.080715865
107 0.119672425 -0.21436642 0.0060617607 0.040583998 0.08820052 0.0015261543 0.11974707 -0.21089548 0.08150955 -0.025476241 -0.17750078 -0.05180031 -0.10262798 0.1925476 -0.10212115 -0.08797351 0.14526826 0.08485814 0.033156697 -0.090069026 -0.14932704 0.26302695 -0.048055388 -0.02627253 0.2280535 0.14284167 0.061936077 -0.012079517 -0.1426957 -0.1395324 0.05661487 0.02926451 -0.08001842 -0.07947889 -0.02833282 0.090079166 0.14182137 -0.064623 0.10069532 -0.2735383 0.07943692 0.012326032 0.03588822 -0.31708798 -0.08139512 0.25430956 0.16364242 -0.102408886 0.06750418 0.15873997 0.17919853 0.021514006 0.061039265 0.054661695 -0.037449114 -0.13420886 0.09634169 -0.15904273 0.13782114 0.13330865 0.07693442 -0.02457569 -0.22876076 -0.045939717 -0.09350915 0.03587949 -0.07394565 -0.018576862 -0.2672956 -0.18718639 -0.0056992485 -0.073531196 0.011872104 -0.28381312 0.13422082 0.08459884 -0.026303997 0.10388145 0.13571607 -0.055512033 0.082091406 -0.16340798 0.16745734 0.10125066 -0.021515593 -0.24720888 0.11907019 -0.029842224 0.15384182 0.03891633 -0.07114773 0.04316616 0.13033348 0.08316527 -0.109913595 0.025842227 0.07839288 -0.12734494 -0.030668024 0.05645478 -0.052201696 -0.18383485 0.09183375 0.074366115 -0.11674771 0.021871066 -0.21449688 0.2739878 0.020371767 0.1327551 -0.20055191 -0.08356987 0.1662667 -0.0024811784 0.08775897 0.14818598 -0.1699982 0.08957888 -0.06332538 -0.0011340964 0.09503275 -0.043901045 0.021962868 0.21213171 -0.27783516 -0.34239104 -0.217844 0.25059798
62 0.21365406 -0.24040504 0.0640431 0.034758814 0.20531812 0.039403643 -0.008530973 -0.21771722 0.1373437 0.012614108 -0.14002569 -0.15289453 -0.101921536 0.28656062 -0.0044199433 0.015756292 0.1802933 0.083231546 0.060733162 -0.24427353 -0.013989509 0.3207797 -0.025553886 -0.016145844 0.22595625 0.13748077 0.08314281 -0.12776534 -0.15018903 -0.26701832 0.087161094 0.023850854 -0.06684226 -0.11279953 -0.05223829 0.075502574 0.20937464 -0.086391605 0.2617832 -0.33536977 -0.0005913699 0.009493411 -0.016385375 -0.23041992 -0.115645595 0.3191398 0.1344292 -0.13518319 0.070010535 0.05988875 0.07265831 0.040680446 0.09724845 0.16594422 -0.07998375 -0.1323006 0.12857758 -0.17668551 0.048496313 0.11483409 -0.008176418 -0.017830143 -0.16368283 -0.02342463 -0.19917785 0.14725572 0.001846349 0.027775472 -0.117701404 -0.1369749 -0.012954183 -0.09497493 -0.047703844 -0.15734184 0.1189053 0.18737622 -0.05819595 -0.09065508 0.030215578 -0.10915789 0.06489246 -0.12851764 0.14769141 0.12067022 -0.059867263 -0.1679248 0.093258545 -0.043714553 0.119159244 0.00013592617 0.01709741 -0.06041552 0.18423946 0.20997205 0.0017392215 -0.006799306 0.16930719 -0.19125333 -0.020276692 0.07886742 -0.17883824 -0.22515486 0.011648766 0.05437135 0.0059120106 -0.046173405 -0.12105446 0.061942812 0.06118685 0.2667209 -0.14849982 -0.038848314 0.1722352 0.0038391505 0.086645424 0.16342086 -0.102756284 0.13394235 0.026669648 -0.011847149 0.08572055 -0.12951621 0.10715219 0.05848769 -0.21865611 -0.20399599 -0.16077663 0.10355454
86 0.22450107 -0.14749761 0.24606231 0.17427209 0.08843633 0.07221264 -0.07379213 -0.24804625 0.13446602 0.098054826 0.10292909 0.0012380875 -0.079990685 0.315699 0.18336438 0.08698443 0.14671303 0.30738944 -0.07476624 -0.35383043 -0.0063799503 0.38023043 0.014063445 -0.12654224 0.060897473 0.062095053 -0.009743763 -0.16986585 -0.11271452 -0.12688471 -0.0121807195 -0.13271031 -0.01572266 -0.051370602 -0.17402756 0.0225275 0.14570418 -0.20116372 0.03991479 -0.10640181 -0.080612235 -0.016414162 -0.07220331 -0.0008754866 -0.19012113 0.26281664 0.27454388 -0.20605473 0.02989308 0.01884622 0.14150897 0.1411204 0.26352614 0.23952861 -0.28384182 -0.2743713 0.013230405 -0.054232918 0.14222556 0.10506286 0.1532254 0.16448364 0.010543016 0.059737656 -0.19433245 0.12349151 0.048745867 0.13229893 -0.035193104 -0.049617797 -0.04957381 0.13855818 -0.11471623 -0.13215326 0.16188207 -0.059996862 -0.101684 -0.082039915 0.04056033 -0.031524856 0.09797559 -0.13714945 0.17086098 0.09718647 -0.06252925 -0.14255585 -0.00089403463 -0.10304761 0.085023254 0.028199906 0.15743655 -0.0383076 0.31167486 0.14089513 -0.005534754 0.076148026 0.100235686 -0.13643028 0.08553291 -0.004110789 -0.14031793 -0.38007227 -0.06609428 0.20293383 -0.18144438 -0.2430637 -0.052710354 0.10322851 -0.047735043 0.14723547 -0.103635825 -0.06751684 -0.12168199 0.048050363 0.23320355 -0.009481492 -0.080086924 0.09538162 -0.06453734 0.028703785 0.14280194 0.105578065 0.05319036 0.034093544 -0.057055905 -0.12784235 -0.29845756 0.049598508
434 0.15258239 -0.094767936 0.020101963 0.06937782 0.10056311 -0.08106007 -0.07175844 -0.13811986 0.19536738 0.050292037 -0.15254644 -0.051468864 -0.12657873 0.29829296 -0.08193368 -0.13420732 0.26227674 0.020548182 0.07783409 -0.10618316 0.011340945 0.13179624 0.1034784 -0.059134316 0.31254897 0.24894035 0.12680644 -0.2457647 -0.1806801 0.02982023 0.06662827 0.15427554 0.012125808 0.023392538 -0.021369882 0.16394186 0.27414602 -0.09325398 0.046415653 -0.0765437 -0.015609578 0.080577366 -0.109267525 -0.18117222 -0.14310658 0.023918012 0.17061688 -0.2496996 0.024798427 0.12976934 0.08147457 -0.028321384 0.1132743 0.19264351 -0.024861831 -0.027280502 -0.095113605 -0.18479207 0.18194737 0.07122122 0.048273362 -0.078128085 -0.10333045 -0.09753509 -0.082094476 0.137792 -0.12976308 -0.13049205 -0.34118268 -0.094458066 0.072723195 -0.10539151 -0.0049778633 -0.19926892 0.2099842 0.11483517 0.028641315 0.08110583 0.10142131 -0.10789947 0.067931674 -0.16139759 0.07123129 0.33458692 0.081176125 -0.11566645 0.08986037 -0.15319215 0.04535542 -0.020491106 -0.078008294 -0.045902506 0.17264497 -0.066351175 -0.007797653 0.0075279856 -0.014007477 -0.051169362 -0.050349128 0.0007949634 -0.072493896 -0.24723166 0.24076274 0.07069048 -0.09247463 -0.052820288 -0.006163265 0.12756275 0.016353976 0.05657828 -0.04785568 -0.20655882 0.1263081 0.0010314601 -0.0013071096 0.11336024 -0.23867972 0.108778074 -0.14398184 0.10020396 0.0095821135 -0.04521114 0.11408811 0.10037182 -0.17743269 -0.12596591 -0.023876203 0.124685355
13 0.23589082 -0.25124186 -0.026272709 0.076708995 0.07485532 -0.092655316 0.03181889 -0.28132898 0.044340607 0.08658812 -0.12665941 -0.2215106 -0.046023488 -0.087273106 -0.022476088 -0.18142146 0.073574714 -0.26401404 0.018330904 -0.2531913 0.088950574 0.17548549 0.15853745 0.061450336 0.1065879 0.07281395 0.134857 -0.13806628 0.08174366 -0.05950721 0.14899333 -0.09374799 -0.014838595 -0.24241868 -0.005148343 0.03518592 0.14568524 -0.14925939 -0.0033869469 -0.3145333 0.059991423 -0.0610218 -0.012302876 -0.17994326 -0.024752233 0.2835552 0.25168604 -0.27836668 -0.098764025 0.02596782 -0.10446629 -0.037194695 0.035711642 0.23889706 0.016617898 -0.2047889 -0.07231389 -0.19870473 0.2566728 0.24918185 -0.03145277 0.013200518 -0.16734625 0.01749936 -0.24937323 0.08581688 -0.05758161 -0.12565601 -0.05132699 -0.2418927 -0.077386856 -0.21825662 -0.21712828 -0.25191137 0.13620746 -0.027763493 -0.05820699 0.26602885 0.08554554 -0.27912503 0.24602494 -0.091573924 0.016098322 0.17620735 0.06139713 -0.14153323 0.12226114 -0.26191652 0.038363192 -0.06177357 0.101728685 -0.047242563 0.24414746 0.11999249 -0.22806345 0.08898201 -0.114450924 -0.31217143 -0.23786102 0.01768733 0.015566816 -0.077902816 0.05467601 0.04234448 -0.22851768 0.044869985 -0.18857184 0.1781722 -0.0338939 0.11199089 -0.05250658 -0.11385897 -0.17295471 0.07725772 -0.18174748 -0.053887352 -0.09448151 0.16782682 -0.063782506 0.19963191 0.07121156 -0.019691154 -0.028308913 -0.07677962 -0.15780139 0.18129767 0.11544485 0.09263564
183 -0.042202435 -0.180962 -0.030407207 -0.024553098 0.08159074 0.15779178 -0.05581761 -0.2845701 0.14039378 -0.017565835 -0.16336083 -0.17373638 -0.07148864 0.049595717 0.10558488 -0.1383545 0.25050172 0.12894236 0.102964476 -0.10781666 0.20065865 0.18984853 0.16721454 0.095776245 0.062115707 0.08388298 -0.025512923 -0.10841346 -0.05082007 -0.057610903 -0.058073703 -0.058338873 0.09861212 -0.035830315 -0.014028115 -0.090328515 0.14731157 -0.17448626 -0.0823533 -0.14737338 -0.00051218184 -0.084250875 -0.15193115 -0.19406123 -0.012140194 0.14309335 0.08484486 -0.14250031 -0.0655362 0.19843905 0.056755476 -0.054055184 0.019727996 0.18481736 -0.032792747 -0.09365362 -0.170735 -0.11004161 0.09618173 0.27422717 -0.03504382 -0.004673819 -0.13647029 0.08216843 -0.19295 0.043653157 -0.11488474 -0.120754555 -0.38891974 -0.17130317 -0.021896511 -0.12506631 -0.21238297 -0.112054504 0.09878335 0.021153174 -0.12242167 -0.03945461 0.27653062 -0.029185131 0.06809731 0.010388524 0.14879963 0.057182755 -0.13747297 -0.03495479 0.20689216 -0.094476976 0.31872228 -0.08299259 0.26202276 -0.040003095 0.30786967 0.108964235 -0.036193117 0.019528588 0.032930117 0.018622302 -0.23973984 0.28374454 -0.07796264 -0.14591573 0.25784373 0.2011949 -0.095197104 0.048279386 -0.13193266 0.14681028 0.012690003 0.14033256 -0.18516637 0.0076845656 -0.005759718 -0.07731622 -0.21145654 0.04749311 -0.18040696 0.28726143 0.018496146 0.04989761 0.09658189 -0.08877646 -0.06128298 0.09143686 -0.09378421 -0.07501642 0.029431872 -0.019381082
166 -0.068041906 -0.21402079 -0.02228089 -0.13861845 0.058029257 0.14877726 0.029209971 -0.33921713 0.2812346 -0.13816969 -0.23893946 -0.1377107 -0.0044590603 0.17060684 0.13342543 -0.06768174 0.13621323 0.22999726 -0.082165755 -0.15936553 0.011939853 0.09283256 -0.044892948 -0.12166756 0.2178521 0.18371725 0.025465157 -0.20762952 -0.12705745 0.026027452 0.04664987 -0.021973064 -0.044304788 -0.0055221687 -0.06478882 0.1734157 0.112593524 -0.15735303 0.12041555 -0.09145526 -0.0021863708 0.01167936 -0.05898917 -0.09605461 -0.03319915 0.17648868 0.059619077 0.0041225464 0.06284473 0.03274994 0.05556749 -0.007542767 0.19799392 0.115916096 -0.15296003 -0.1682151 0.09660402 0.031019391 0.07952895 0.1267155 0.04787932 -0.0110064875 -0.19641347 -0.008265749 -0.08858118 0.1423992 -0.05471481 -0.11427091 -0.35439193 0.017220294 0.020238569 -0.031208517 -0.049030557 0.021688266 0.11587378 -0.02461995 0.073986426 0.18068826 0.27232212 0.10150108 -0.02288182 -0.108373284 0.27047572 0.1759025 0.038370863 -0.12637722 0.2949581 -0.18589103 0.15602359 0.020652309 0.030853134 0.23299095 0.08961 0.20121703 -0.03346744 0.1472049 -0.02523397 -0.06425739 -0.07827225 0.034151673 -0.08275013 -0.22172973 0.07287601 0.12893587 -0.11925957 -0.15238209 -0.10973907 0.09763932 0.039678857 0.06178841 -0.07610567 0.12661543 0.11171649 -0.16421877 -0.0728745 0.14898138 0.0009596958 0.105428316 -0.034465913 0.09655885 -0.07707216 0.1231348 0.20638171 0.18004057 -0.060766608 -0.27200285 -0.039878603 0.22435047
64 0.100661546 -0.15167052 0.057083916 0.10308795 0.16813856 -0.07789401 0.04303767 -0.39793646 0.33591607 -0.26937842 -0.33501714 -0.05612336 0.02001663 0.054535706 0.16132708 -0.029369213 0.23605154 0.07901017 -0.059676003 -0.34554693 0.12931101 0.09655658 0.050991476 -0.13056713 0.043971267 0.26860347 0.02461727 -0.25414604 -0.12697868 0.0015730036 -0.0073489686 -0.10559074 0.00339351 -0.15798528 -0.09819118 0.17868713 0.18063061 -0.15041965 -0.20530865 -0.0008338651 -0.0787962 -0.064470746 -0.090643995 -0.07111701 -0.06101613 0.03714634 0.18454471 -0.00974136 -0.03307854 0.11990484 0.059443634 -0.024998993 0.1300159 0.38541052 0.056291573 -0.3091498 -0.07484129 -0.06093911 0.07398701 0.12094124 0.018259658 -0.0035895216 -0.12973699 -0.0059005804 -0.11777895 0.21053016 -0.05496995 -0.012652277 -0.14633714 -0.16274178 0.055140737 -0.18613471 -0.052135333 -0.12870568 0.19409709 -0.10876343 -0.026707483 0.12204839 0.16417342 -0.16395244 -0.21422862 -0.096327625 0.19206333 0.36852884 0.18838802 -0.08444664 -0.11254259 -0.08162101 0.15233137 -0.09685857 -0.07303571 0.029194389 0.19434032 -0.025384737 0.1353967 0.09157016 0.03453459 -0.02947155 -0.23268415 -0.04014656 -0.017386269 -0.014801612 0.18100692 0.008106083 -0.10692361 0.020326113 0.07167979 0.209904 0.019271538 -0.13005361 -0.15298717 -0.07514012 -0.011003478 0.07707878 -0.07005777 0.10786119 -0.006781539 0.16600586 0.060529366 0.18097204 0.039438564 0.09019318 0.110682316 0.17796415 -0.12477366 -0.12831692 0.14608365 0.14453436
129 0.10883682 -0.21941848 -0.06467922 -0.12778948 0.2001089 0.03584999 -0.13754566 -0.09446484 0.14404291 0.0049021076 0.044516116 -0.015468201 -0.20573938 0.2145504 0.06746212 -0.23360834 0.26333094 0.06912817 -0.012447275 -0.24606988 -0.14075981 0.33337876 -0.005165442 -0.11856569 0.088897064 -0.03153858 -0.04372127 -0.064154975 -0.11916118 0.17332187 0.15465263 -0.024470123 0.1426044 0.13538559 -0.15524207 -0.057726663 0.22450274 -0.14382784 -0.054777924 0.09912754 -0.049881313 -0.004432198 -0.14966047 -0.17510879 -0.044192873 0.04364817 0.06893304 -0.25528327 0.06789019 0.12951687 0.04460234 0.07067831 0.1387186 0.07733886 -0.09653131 -0.11806617 -0.11079744 -0.15931398 -0.020093078 0.055218004 -0.012538676 0.08251481 -0.16298234 0.010342656 -0.1986751 0.072061986 0.025299815 -0.12899223 -0.4676797 -0.120578155 -0.05103705 -0.14031978 -0.21191177 -0.06264966 0.17223659 -0.00654954 -0.13075227 0.14803572 0.19736397 -0.15916406 0.12244514 -0.072207704 0.05547705 0.22139536 0.02773467 -0.072870165 0.1651446 -0.20223264 0.07642868 -0.0062042815 0.08206202 -0.06784906 0.34647825 -0.05633874 -0.08421827 0.00018418128 -0.016625103 0.027557842 0.014757502 0.12748818 -0.12570167 -0.18109608 0.17956808 0.30307382 -0.001271396 0.022573832 -0.10044626 0.11260211 -0.024938582 0.20868334 -0.16331851 -0.108493276 -0.07793853 -0.06623656 -0.13311657 0.10270841 -0.18956545 0.06542862 0.007028811 -0.018918388 -0.057479907 -0.06329525 -0.036404673 0.09509335 -0.019707255 -0.059375815 0.13813485 0.015260217
5 0.18653932 -0.22997384 0.16196382 0.084796734 0.04181872 -0.018428478 -0.043634437 -0.37615588 0.22604172 -0.1400297 -0.32920113 -0.016732033 0.139906 -0.16257992 0.040471066 -0.15764773 0.18601456 -0.0290119 -0.0807644 -0.43605092 0.055054657 0.24237949 0.031185918 -0.257385 0.25131786 0.12136274 -0.0057991543 -0.3423088 -0.26511493 0.022715889 -0.017777152 -0.17398399 -0.024708604 -0.19494554 -0.10083644 0.034588877 0.19403829 -0.1518193 -0.14344989 -0.10526501 0.061935805 0.076007515 -0.02042451 -0.15881748 -0.26220828 -0.050252512 0.21300583 -0.14759123 -0.09098192 0.09149005 -0.045935642 -0.04371675 0.21695954 0.053181928 0.087409325 -0.10257905 0.14723942 0.042415727 0.30819803 0.20758188 0.11677958 0.0096466355 -0.13411957 0.12044088 -0.19533023 0.35777968 -0.16987891 0.101834975 -0.14071071 -0.29877812 0.052146047 -0.14317453 0.01071555 -0.007958828 0.2640001 -0.0818205 -0.2645404 0.19374813 -0.04220961 -0.3667468 -0.06393182 0.16506928 0.2464191 0.16035132 0.050970986 -0.059258115 -0.010125466 -0.017777547 0.24707441 0.025476113 -0.17444639 0.1281227 0.060475502 0.061161827 -0.063894056 0.014778608 -0.1094408 -0.18772206 -0.2117431 0.110613644 -0.089034565 0.110960364 0.23509552 0.10034333 -0.28119496 0.09333504 -0.08071268 -0.028970867 -0.006086651 -0.1023945 -0.22331122 -0.053212803 -0.057314813 0.026523668 0.11449565 0.18190272 0.13556546 0.12275193 0.038238477 0.044829883 0.059522938 -0.03751211 -0.010278895 -0.1799859 -0.2682207 -0.15753709 0.08377056 0.09659354
249 0.14766918 -0.18740241 -0.020174934 -0.16268082 0.1676554 0.110431425 -0.051719617 -0.23620519 0.17879423 0.022831256 0.0200068 -0.0692794 -0.07607044 0.23319599 0.011496485 -0.16909458 0.08082979 0.13231172 0.12942263 -0.16784015 0.05476794 0.14853671 0.09033959 0.073440485 0.3620376 0.24998525 -0.10457348 -0.23553367 -0.07458836 -0.102644406 0.14162362 0.09713283 0.115726575 0.0347103 0.01952511 -0.06080658 0.37628543 -0.052223552 0.08292651 -0.17043081 -0.07149049 0.0803784 -0.21477892 -0.20919792 0.15008877 0.08018678 0.15873209 0.025019914 -0.035061553 0.05310547 -0.016287038 0.07793416 0.08070877 0.0033815196 -0.07063974 -0.010234724 0.049486324 -0.22589959 0.061213635 0.22934125 0.05773779 -0.08230533 -0.14606483 0.14869215 -0.049867 0.15267362 -0.13765228 -0.19298677 -0.27574658 -0.014321982 0.19721967 -0.003826099 -0.20291191 -0.09917891 0.16996372 0.19189258 -0.22875853 0.117187105 -0.020053247 -0.10258884 -0.023483427 -0.042994462 0.12185198 0.08601145 -0.020963205 0.035303935 0.1357896 -0.21938878 0.0613005 -0.16065837 0.02444906 0.08098006 0.18642454 0.17998649 -0.02878097 0.021340834 0.07070865 0.038836602 -0.058159932 0.15534207 -0.24261588 -0.13710032 0.11053272 0.04744322 -0.012088126 -0.084436856 -0.113159835 -0.024314066 0.09608836 0.11006502 -0.26857844 0.10637015 0.1327888 -0.08669658 -0.075534366 0.010458571 -0.22693552 0.15837261 -0.12316739 0.09308066 0.10676313 -0.038405616 -0.0067998553 0.11395654 -0.1753938 -0.31537083 -0.065215304 0.2202876
533 0.22536747 -0.20998597 -0.0096574 0.13642442 0.045036223 -0.030029593 -0.18197998 -0.23455784 0.08219812 -0.029849276 -0.13066895 -0.15307747 0.015587544 0.2310616 -0.039028566 -0.032589417 0.34790647 0.016714938 0.07633497 -0.2733665 -0.16294393 -0.037723597 0.22854182 0.23352046 0.14964862 0.04720363 -0.053820603 -0.044793293 -0.07854894 0.18020457 0.14813972 -0.06323243 0.028998073 -0.031998117 0.019027894 -0.08561668 0.17281908 -0.23065738 0.12027938 -0.12294848 -0.0065587857 -0.17845713 -0.020027438 -0.089249365 -0.18551666 0.3015716 0.1310041 -0.021706976 0.008044062 0.213618 -0.008772744 0.110170804 0.16943985 0.14996904 -0.1960887 -0.24961594 0.07531776 -0.09310999 -0.010857432 0.0989952 0.15939707 -0.021046206 -0.18866445 -0.01307011 -0.25159618 0.045146726 -0.096254855 -0.032047644 -0.20114112 0.15092966 0.07179033 0.025469108 -0.15106508 -0.07463465 0.19834022 0.028041884 -0.03487689 0.28089777 0.15738352 0.054626532 0.20694521 -0.08962747 -0.07079685 0.16019386 -0.17812729 -0.20961037 0.09044242 -0.13826196 0.023622468 0.030710258 0.11842817 0.098917075 0.28326625 0.19331095 -0.07215604 0.09720684 -0.03906166 -0.26656875 -0.056111354 0.17336537 -0.027936505 -0.024949746 -0.095723316 0.32608783 0.012702758 -0.04977168 -0.025731277 0.10365719 -0.06800631 0.08240676 -0.10579202 -0.09363035 0.083791055 -0.053035792 -0.063921995 0.08569678 -0.27957058 0.06773641 -0.3160652 0.050241895 -0.049849145 0.09935566 0.18585978 -0.024506884 -0.16920537 0.062910944 -0.12566236 0.012412976
211 0.13138422 -0.09248805 0.13293932 -0.15330847 -0.0055633816 0.109445445 -0.021396147 -0.34594798 0.24854492 0.11643135 0.026747817 -0.04479911 -0.04391506 -0.09905049 -0.06100395 -0.38325801 0.1833487 -0.02077546 0.1263633 -0.27670845 0.09634929 0.08914324 0.023145935 0.077725425 0.42819038 0.17362921 -0.13779995 -0.019486371 0.051611353 -0.163134 0.2365968 -0.020534026 -0.041974265 -0.24488764 -0.038276818 -0.19359869 0.13219215 -0.09443243 -0.029299641 -0.1430624 0.014023934 0.11326032 0.09197708 -0.15695246 0.16625972 0.022934698 -0.021448312 -0.08242981 -0.18213445 0.16547848 0.012267146 -0.0026137452 0.12935862 0.18549876 0.1016906 -0.060984753 -0.041352388 -0.03271719 0.23512673 0.27345046 0.11538938 0.017584112 -0.16815616 0.1355598 -0.022608954 0.08806688 -0.21715778 -0.2710916 -0.14830153 -0.19682984 0.15264997 0.12870467 -0.065400094 -0.110819854 0.18010852 0.114268385 -0.26919857 0.1649727 0.012086971 -0.19979304 0.13027918 -0.11481789 0.09236779 0.26233545 0.030629773 -0.21753153 0.18947308 -0.09082749 -0.032241367 -0.05951473 0.1320899 0.11628556 -0.0010412328 -0.060204845 -0.0069580474 -0.06655708 -0.046240266 -0.097540535 -0.08415892 0.32328486 0.06624745 -0.028535038 0.32928604 0.16843325 -0.15644507 -0.058709644 -0.1614496 0.085689366 0.067907706 0.029836157 -0.3706991 0.18261611 0.07169495 -0.040023997 -0.21146177 0.081935845 -0.15816353 0.18369919 -0.035376202 -0.008160413 0.048730213 -0.15069403 -0.099691994 0.045511924 -0.055401295 -0.26623923 0.098769374 0.1630468
105 -0.054827977 -0.20307492 0.034695555 -0.021745842 0.043542393 0.08543762 0.014866335 -0.053500026 0.14723904 -0.12557112 -0.0058776643 0.0036064524 -0.082014695 0.34662458 0.025029615 -0.16102791 0.11561031 0.13920495 0.16515599 -0.027082324 0.08240211 0.26687843 0.103327915 0.059700716 0.37461242 0.19551037 -0.018512025 -0.09605927 -0.19022965 -0.0076974556 0.0669537 0.19682777 0.15962233 -0.019449532 -0.071586125 0.040793244 0.22528864 -0.16216384 0.002147242 -0.020419955 0.08902693 0.018333746 -0.16623017 -0.22229983 -0.08516536 0.09449565 0.22309937 -0.05108969 0.018507985 0.03571156 0.056840338 0.07992266 0.11727255 0.0002262561 -0.098205045 0.0070524663 -0.031272933 -0.22982123 0.0033675143 0.13643065 0.08117419 -0.093723506 -0.13310868 0.08016565 -0.049975906 0.205606 -0.03621001 -0.1169692 -0.37020868 -0.01816235 0.13150282 -0.070329696 0.020604327 -0.19583422 0.25377694 0.118504725 -0.10818571 0.10868787 0.016890563 -0.017626723 0.03158881 -0.1902177 0.11598951 0.17654708 0.13125733 -0.045531306 0.13257422 -0.13479668 0.025308315 0.027947959 -0.016674927 0.13505444 0.27402568 -0.08061345 -0.03418422 -0.0006770407 0.04301865 -0.068807214 -0.096559964 0.12280261 -0.12408213 -0.190889 0.17212705 0.16747387 -0.038734738 -0.15259816 -0.07861853 0.06331075 -0.007393853 0.09835756 -0.20262994 -0.0691195 0.14567795 -0.10247656 -0.042872593 -0.044916227 -0.249179 0.11792315 -0.25164557 0.14490668 0.1893633 0.005543235 0.1464426 0.12187795 -0.1859262 -0.1393283 -0.12545224 0.19757146
142 0.065411404 -0.27244452 -0.014836362 -0.20086618 0.22495976 0.025742771 0.04856072 -0.29588887 0.09200933 -0.0932709 -0.095996246 -0.13457382 -0.09286433 0.4349722 0.08316935 -0.08535485 0.16541268 0.116256334 0.015940132 -0.2601721 -0.060497206 0.29360217 -0.06545591 -0.07590028 0.21330498 0.16348983 -0.15880892 0.024826806 -0.14140454 -0.06689064 0.05885955 0.032317244 -0.05089098 -0.089378506 -0.09667716 0.04692359 0.2095091 -0.0650147 0.18295145 -0.2903793 -0.042283267 -0.007636831 0.035537854 -0.2844506 0.085390985 0.21885572 0.08388239 0.063515216 0.27510378 0.10912128 0.04447294 0.05591721 0.18639536 0.15050068 0.029872274 -0.106306456 0.07560399 -0.20490102 0.050082844 0.19544046 0.022832777 -0.06347851 -0.2625246 -0.08222691 -0.1280104 0.11004749 -0.048082277 -0.052938458 -0.15732017 -0.012906061 0.09501576 -0.08411724 -0.16986762 -0.16942729 0.22172788 0.07601958 -0.03294762 0.005404962 0.20830554 0.13737552 0.02271015 -0.26307023 0.2807886 0.17919685 0.0940372 -0.07476859 0.030675923 -0.0481829 0.12541607 -0.000675825 0.08257463 0.06953052 0.16614297 0.074632116 -0.18213283 -0.0036255678 0.123186395 -0.14676188 0.05891474 0.0016763071 -0.18305174 -0.25300807 0.13947389 0.004346832 -0.0342361 -0.030244084 -0.09673821 0.30186093 0.06731664 0.21613488 -0.1812053 -0.0737854 0.07498777 -0.08833453 0.13751093 0.17591782 -0.15054443 0.11205594 0.046760347 -0.011480843 0.18325603 -0.082447864 0.0058151474 0.1470605 -0.13750412 -0.3091562 -0.08818983 0.2253578
106 0.061137035 -0.027482828 0.012831972 0.080428764 0.21020356 0.12641115 -0.055632867 0.026835639 0.130379 -0.15686919 -0.028821897 0.11791784 -0.21264566 0.22191592 -0.029394142 -0.2510262 0.13929754 0.001671039 0.11904274 -0.098069206 -0.0899282 0.083284296 0.17997354 -0.06542907 0.23950543 0.17555472 -0.072993144 -0.103802666 -0.10305784 -0.09526529 0.055508092 0.06398723 0.05046342 -0.043035366 -0.041106425 -0.17084508 0.24962991 -0.2768834 0.037985396 -0.1038447 -0.1283098 0.085896276 -0.06893983 -0.14190547 -0.18156278 0.31262955 0.03722848 -0.17145453 0.069379784 0.03326196 0.010506103 0.020001233 0.119179286 -0.053716958 0.008102588 0.11926771 0.041498132 -0.12040925 -0.10033237 0.17294174 -0.02410758 -0.18789744 -0.14508122 0.094466664 -0.07387226 0.2670462 -0.12249443 -0.14133006 -0.44602048 -0.18152906 0.09731928 -0.030637408 -0.026914075 -0.08915057 0.2977475 0.041814163 -0.17989022 0.050661642 0.14635997 -0.13155904 0.0012012147 -0.27424255 0.18901025 -0.0042422684 -0.086847395 -0.083710626 0.14799733 -0.039658975 0.17153963 0.111709885 -0.06136429 0.027526448 0.10757973 0.057655893 0.07696047 -0.12714525 0.04024014 0.017866392 -0.10213337 0.18244793 -0.12391453 -0.09998894 0.13711551 0.007175982 -0.14959846 0.058134675 -0.07459191 0.18929736 -0.064517535 0.19477093 -0.17722623 0.1481693 0.070558384 0.082790874 -0.09847282 0.26190764 -0.3616344 0.19549958 -0.03727234 0.12257339 0.022857731 -0.023713047 -0.13294102 0.16444278 -0.12746376 -0.46229503 -0.20588303 0.08588644
21 -0.006702991 -0.03272839 0.015568668 -0.020482779 0.007263301 0.10858654 0.11959561 -0.08315006 0.10445115 0.010466455 -0.13436848 -0.027222937 -0.09241049 0.10626748 0.123298444 -0.21916938 0.093167864 0.050139893 0.0139377285 -0.113016576 0.031475417 0.100424655 0.16651712 0.05155912 0.266863 0.0886953 0.009357897 -0.05465071 0.018025978 0.0974518 0.14112127 0.042582903 -0.060128886 -0.13380156 -0.15193641 -0.04318752 0.2486453 -0.13492541 -0.07022831 -0.05029596 0.062148143 0.15180767 -0.13813153 -0.18666412 -0.23950396 0.33088464 0.08548531 -0.133814 0.11484811 -0.07532255 -0.023337347 0.051873017 0.03269596 -0.06989955 -0.036662817 0.1995947 -0.032005385 -0.24044742 -0.17215455 0.15837552 0.049565062 -0.038958304 -0.08858827 0.20861046 0.046115555 0.33360934 -0.04886575 -0.16012132 -0.255902 -0.30463067 0.053068504 -0.20313753 -0.17383388 -0.2074955 0.30314207 -0.003159506 -0.11902826 0.1077084 0.29037842 -0.19244215 0.16192678 -0.27330402 0.10605334 -0.12141025 -0.026860768 -0.06283338 0.12493439 0.017400397 0.13124801 0.016700692 -0.030661657 -0.044802863 0.16975293 -0.015709992 -0.050588988 -0.031059371 -0.062256727 -0.10433548 -0.15828416 0.26547948 -0.12479199 0.028298745 -0.01814495 0.10068994 -0.12796532 0.15808402 -0.14603548 0.17025138 -0.22923635 0.1774722 -0.18687926 0.16705337 0.051359557 0.089735344 -0.23438604 0.1952793 -0.22143506 0.06613016 -0.15300687 0.1574061 0.14578712 -0.035465863 -0.008880634 0.18099643 -0.19929098 -0.24655946 -0.10469953 0.0963687
83 0.08784045 -0.20964791 0.014632056 -0.11677464 0.08000177 0.08262116 -0.08901233 -0.2891567 0.21840052 0.062399626 -0.09442656 0.095665984 -0.182809 0.19114102 0.063700154 -0.24052939 0.09915046 0.27295706 0.079219386 -0.19791648 0.03659064 0.21110386 0.1488439 0.0744041 0.4471459 0.11414037 -0.13904153 -0.14102013 -0.030070385 -0.18681853 0.16041957 0.084412284 0.0392216 -0.108586326 -0.17154641 0.17092101 0.06305841 -0.22510551 0.089472935 -0.09348104 0.1078491 0.07452683 -0.19235086 -0.2258426 0.0057182177 0.080907926 0.16645432 -0.13831054 0.10491975 -0.10776887 -0.06809002 0.10717596 0.050558783 0.1529286 -0.22295952 0.017817581 -0.0022853299 -0.026106087 0.037870996 0.15813965 0.06758332 -0.049820974 -0.21632037 0.11870893 0.021669824 0.22704682 0.018756285 -0.01528982 -0.30940956 -0.14259844 -0.048102524 -0.12660797 -0.06373038 -0.20405349 0.07961848 0.15985811 -0.14417797 0.052654885 0.15623577 0.018851995 0.06718195 -0.09087746 0.13370395 0.06399017 0.14636084 -0.058249902 -0.014951321 -0.14079124 0.0946785 0.07865937 -0.03490602 0.083934836 0.1690098 -0.024158271 0.0046912516 0.17975204 -0.06443103 0.055974834 0.01695047 0.0043278695 -0.08613346 -0.2617112 0.053642392 0.09344097 -0.14802411 -0.2196717 -0.24090533 0.13124923 -0.011081265 0.11841728 -0.19597566 -0.010855324 0.03877039 -0.17529103 -0.08165484 -0.08360101 -0.17949915 0.07486429 -0.120134704 0.16995227 -0.011807838 0.06915809 -0.010909893 0.043136176 -0.17088066 -0.204959 -0.20039463 0.08707776
377 0.055875905 -0.1873015 -0.014534237 -0.2646104 -0.1894562 0.21311003 -0.014645061 0.0060948925 0.31098184 -0.06521037 -0.033577975 -0.15964407 -0.2755881 0.12321036 -0.08844756 0.11771668 0.008036987 0.076425925 -0.24588056 -0.33795017 -0.39964288 -0.1283226 0.08784116 -0.22271602 0.23438793 0.20833884 0.09595927 -0.16225016 -0.04873142 0.22315158 0.46479592 0.030235147 0.21988069 -0.048456214 -0.13847972 -0.06709882 0.1664382 -0.19500542 0.10561515 0.0046398332 -0.16093299 0.048125327 0.04362295 -0.031003818 0.0085963765 -0.001694305 -0.12489168 -0.04225537 0.21711506 0.0852409 0.035637014 0.13530387 0.35553768 0.03631082 -0.08989367 -0.016213493 0.22179547 -0.22076392 -0.052575324 0.12155364 0.0024971343 -0.022245174 -0.012412288 0.103836514 -0.3405957 -0.09845015 0.10268291 0.08306081 -0.3493592 0.091258556 0.1456754 0.0724387 -0.2697986 0.05079207 0.14685601 0.15365371 -0.02305835 0.40669164 0.21816278 -0.31260884 -0.14030293 -0.33437133 0.18442522 -0.008577207 -0.19496708 -0.059352797 0.03994856 -0.06721011 0.026116598 -0.10713194 -0.020573355 -0.2092211 0.1655069 0.0043382957 0.32363594 0.110166244 0.23910038 0.0384165 -0.02853042 0.10963612 0.12057794 -0.2069327 0.443124 0.2691527 0.039841663 -0.33371636 -0.14876485 0.26846737 -0.094755255 -0.049370546 0.006678798 -0.19444941 -0.22440106 0.031343725 -0.23866604 0.13178179 -0.13507532 0.19771867 -0.16207136 -0.015016044 0.06733353 -0.00659607 -0.12334594 0.1407137 0.140187 -0.10432583 -0.01568603 0.17097525
283 0.02255696 -0.07002845 0.105742775 -0.2603605 -0.148574 -0.030219061 0.0017842987 -0.11404339 0.17907128 -0.11450036 -0.027461613 -0.07054639 -0.13943547 0.14847466 -0.062743455 -0.05374447 0.045469213 0.18376842 0.00036717925 -0.3657882 -0.059883744 0.31687802 -0.013575801 -0.10896363 0.31558946 0.21931732 -0.15629943 -0.0019822526 0.017784933 -0.1126232 0.1437213 0.01994878 0.034329295 -0.106738664 -0.23105037 0.039983828 0.12359993 -0.029203556 0.03887208 -0.12870596 0.016930507 0.175293 0.078272924 -0.18143731 -0.0034673905 0.07457546 0.013073827 0.04190919 -0.04573282 0.031622685 0.10105541 0.043369066 0.21042798 0.22725527 -0.03972401 -0.032028012 0.023452379 -0.09229113 -0.026103916 0.22559965 0.029638669 -0.14208013 0.023954177 0.035184287 -0.071033575 0.15490845 -0.12887673 0.010333901 -0.24403414 0.042671144 0.07905322 0.08873824 0.07026501 -0.09643979 0.20165919 0.19183911 -0.060096636 0.12483539 0.13870433 0.013424899 -0.049336422 -0.44487616 0.25396544 0.20322841 0.024594907 0.0046464284 0.07127542 0.036726937 0.07126262 0.020794798 -0.0125301415 0.019096335 0.123977154 -0.11044667 0.18401568 0.112430856 0.14936274 -0.012731144 0.044939578 0.09745314 -0.08980561 -0.23406403 0.26389113 0.028866278 -0.12050483 -0.12364075 -0.08870022 0.2679319 -0.04120753 0.02454318 -0.24441186 -0.041348547 0.16882698 -0.19445524 -0.10239582 0.14405893 -0.24918148 0.22053513 -0.18718915 0.17437167 0.09268932 -0.024587076 0.0015401753 0.29005763 -0.08024855 -0.08161298 0.034896035 0.19155143
128 0.06648445 -0.19043717 0.026216218 -0.07561694 0.08685353 0.037076928 -0.05059708 0.05490882 0.1652686 -0.058706373 -0.009784967 -0.08870551 -0.31566516 0.106611826 -0.0034721957 -0.05106409 0.1829407 -0.067368306 -0.036366858 -0.17359023 -0.093309544 0.14953792 0.10774118 -0.059673462 0.24192953 0.23936996 0.07270344 -0.21851227 -0.06667756 0.07347441 0.12498517 -0.06571581 0.06811592 0.023744998 -0.14181896 0.046799634 0.18934038 -0.15557043 -0.14198871 -0.028069641 -0.15967111 0.06494488 -0.20232777 -0.36703447 -0.027301125 -0.018442562 0.032931678 -0.058778483 -0.039525006 0.048601102 0.11970008 -0.05020643 0.08115806 0.19272268 -0.052603904 -0.01245827 -0.08156339 -0.17948191 0.013387022 0.15674537 -0.00018732066 -0.0072236024 -0.012232121 0.14084318 -0.197368 0.117302276 -0.032492347 0.08451296 -0.32607773 -0.2461773 -0.0039403453 -0.077698044 -0.21218993 -0.07494361 0.29070193 0.06834624 0.023574615 0.20841193 0.16177133 -0.14246096 -0.12692957 -0.20675635 0.11267456 -0.05346966 0.21176678 -0.017078632 -0.038566552 -0.11678554 0.0691776 -0.019025955 -0.053521924 -0.2094862 0.2671483 -0.042373825 -0.034490246 0.061115887 0.15222144 0.1744924 -0.1603823 0.20516175 -0.20169955 -0.08763976 0.23125742 -0.057489578 -0.006376024 0.09770347 -0.16291401 0.17213716 -0.14687629 0.2066069 -0.13918003 -0.07248381 -0.103126526 -0.11484577 -0.14843339 0.037328612 -0.17122902 0.14494613 -0.08577992 0.24970143 -0.0144634545 -0.10859216 -0.0522482 0.07087448 -0.14503953 0.023768092 -0.051866863 0.19161138
114 0.059344355 -0.10169761 -0.0022723647 0.10794956 -0.003857218 0.056498155 -0.078111105 -0.13581528 0.12642664 -0.050503906 0.182838 -0.2516164 -0.2673109 0.1555427 -0.05820424 -0.0682791 0.2071907 -0.064036705 -0.092766866 -0.0833812 -0.024172317 0.35318205 -0.027284887 -0.051715948 0.052478794 0.098004974 -0.13857831 -0.19673802 -0.09565643 -0.03781258 -0.024169946 -0.04610391 0.08099484 0.0131354695 -0.072498426 -0.0420567 0.0009651822 -0.054215234 -0.04922491 -0.15334086 -0.09426039 0.037480637 -0.15860376 -0.3742141 -0.08728226 0.2083254 0.15413839 -0.300502 -0.21556713 0.1320513 0.037417542 -0.008719624 0.09221772 0.08112403 0.036144756 -0.06580574 -0.12615195 -0.19094737 0.108228095 0.3300394 0.06753707 -0.25599137 -0.041218393 -0.022573894 -0.24287894 0.18921478 -0.08126819 0.08469396 -0.31903064 0.0133567825 0.14252658 -0.041199278 -0.1283073 0.075120755 0.17418459 0.029667659 -0.10669472 0.04042256 0.0675214 -0.13480821 0.18047321 -0.25466865 0.08727667 0.06537408 0.09399681 -0.13974 0.326519 -0.109571055 0.09209039 -0.08744595 -0.1064418 -0.13522746 0.22562294 -0.091120146 -0.08686221 -0.12093877 -0.023014486 -0.1559036 -0.1288412 0.2549348 -0.17015399 -0.03467669 0.17180017 -0.030356973 -0.14027983 0.28963223 -0.10045281 0.22029676 -0.16534421 0.18601549 -0.15934226 -0.12013424 0.012491315 -0.17652209 -0.0550397 -0.012652081 -0.30693266 0.19959438 -0.008647655 0.07299282 0.34844035 -0.078222 -0.02541391 0.2501756 -0.13052537 -0.07306182 0.035714753 0.23070423
420 0.30749136 -0.12496632 -0.13438146 -0.098637484 0.14420608 0.038092975 0.29294404 -0.40223682 0.110301845 -0.053883355 -0.06560212 -0.09352743 -0.080598645 0.23475063 0.017033009 -0.047383297 0.34417647 0.12598817 -0.07115072 -0.15325649 0.070333235 0.26468873 -0.039312392 0.026213566 0.22982539 0.13260196 0.28013256 -0.3390564 0.0737532 -0.048849877 0.08170884 0.22057766 -0.016956292 -0.10117281 -0.06553837 0.120770596 0.2310163 -0.21881048 0.25074434 -0.24323153 -0.0821382 0.24907364 0.00010734843 -0.158448 -0.048128784 -0.09462476 0.18478788 -0.28240287 0.14203851 0.025488218 0.011328142 -0.10494472 0.010878235 0.14777663 -0.011166305 0.017097868 0.012048816 -0.21985719 0.097443104 0.14600302 0.009874456 -0.006308994 -0.12902884 0.15412611 -0.12195372 0.22675718 0.025604364 -0.0130603835 -0.21587181 -0.33248198 0.077432156 -0.02086019 -0.11789177 -0.14384228 0.06271398 0.2781356 -0.1845684 0.122254625 0.16971828 -0.24026816 -0.037874036 -0.091797434 0.07571029 0.056534722 0.062204774 -0.01349674 0.1407112 0.06150438 0.108247526 -0.06371852 -0.05009961 0.09855878 0.097977154 0.28237376 -0.05339124 -0.068795815 -0.14208192 -0.12020801 0.023211002 0.36791503 -0.020954063 -0.22533701 0.11972309 0.05825937 -0.061437458 -0.3012971 -0.25096846 0.17409302 0.15311754 0.15096243 -0.05615168 0.20141697 0.07021887 -0.034361716 -0.21845098 0.13728803 -0.04322894 -0.022620678 -0.06310314 0.024373183 -0.08584748 -0.13969313 -0.030022545 -0.0007854576 -0.005024365 -0.18091612 -0.1483113 -0.08173054
84 -0.15618977 -0.3064865 0.22106054 0.1998091 -0.15875913 0.1118604 -0.116108134 -0.07708859 0.18375522 0.0054784915 -0.14125846 -0.033151295 -0.14880496 0.07688639 -0.10610894 -0.22627859 0.3109108 0.44019407 0.29161283 0.13820808 -0.30021465 0.2252666 0.11799578 0.06651312 0.37282842 -0.07408645 0.06297853 0.031762883 0.103035584 -0.15668058 0.14845347 0.08091301 0.050587934 -0.21510367 0.06677745 0.2146856 0.049157333 -0.1560666 -0.1260681 -0.14332668 -0.010039195 0.22952817 -0.11510832 -0.22610618 0.01353542 0.22749951 -0.0999518 -0.11494083 -0.096665174 -0.025230646 0.06523675 0.00957322 0.17236683 0.05452099 -0.15447964 -0.1482136 0.03532833 0.01923028 -0.019482145 0.32764974 0.0029630333 -0.11134576 -0.2909827 -0.041293312 0.018407697 0.20888801 0.024055537 0.10712 -0.10142583 -0.1986417 -0.14916487 -0.07478219 -0.020719651 -0.10474367 -0.1253481 0.11379708 -0.04995391 0.067799315 0.03303255 -0.15973419 0.0310509 -0.2538658 -0.009992898 0.27835757 -0.041361388 -0.28988138 0.3686612 -0.35272202 -0.036345348 0.08320369 -0.17445529 0.030117437 0.1303973 0.004677633 0.061666124 0.104359604 0.060612313 0.14485906 0.00087576587 -0.056358717 -0.095519245 -0.26951492 0.039881986 0.1604985 0.04292069 -0.18998536 -0.1758551 -0.12356382 -0.02083263 0.06604602 -0.20103092 -0.16355386 0.27343434 -0.14179935 -0.2538136 -0.10694294 -0.17218924 0.0455685 -0.1791689 0.0177212 0.04395037 0.1439378 -0.06256739 -0.040547866 -0.15756413 -0.2902986 -0.24835742 -0.14454901
87 0.050481874 -0.17048626 -0.027852993 -0.12276828 0.07409823 -0.0387192 -0.17560142 -0.20533617 0.20033802 0.10013661 0.009131105 -0.023051055 -0.12085312 0.2922247 0.054257512 -0.23242646 0.11860122 0.03306543 0.04541297 -0.12189167 0.055460103 0.0063280785 0.13601287 0.07375837 0.26541153 0.1720649 -0.23494202 -0.22970995 -0.05293189 -0.07147167 0.09172581 0.13151678 0.0330514 -0.03747548 0.0148729365 0.06800675 0.16380864 -0.1823638 0.044709627 0.018428393 -0.0070238174 0.07620632 -0.12587401 -0.31587404 -0.03756501 0.1294843 0.11269181 -0.23685303 0.035880543 -0.010456517 0.0055635893 0.06234141 0.11123299 0.147077 -0.1467487 -0.065575644 -0.11864764 -0.11416349 0.060076952 0.33070976 0.15456364 -0.045899138 -0.1990988 0.12368872 -0.040549155 0.11778635 -0.011587084 -0.22028898 -0.41014048 0.01883584 0.13567312 -0.09140344 0.036933687 -0.09498082 0.14753687 0.06441568 -0.11198555 0.14045753 0.15044166 -0.06640244 0.08408769 -0.16301586 0.11236916 0.20189032 0.08928293 -0.009746301 0.027087808 -0.27540344 0.08525418 0.05491794 0.032185003 0.03914908 0.16214262 0.02696266 -0.14139527 0.082778156 -0.014128474 -0.0039367704 -0.061435584 -0.019624393 -0.046725545 -0.22304577 0.14583454 0.056727007 -0.2338475 -0.031954084 -0.23810372 0.13294087 0.05799474 0.25597227 -0.26879054 0.06584529 0.14322807 -0.10560669 0.009697706 -0.015145683 -0.30225906 0.073120035 -0.037183434 0.18131456 -0.0114480015 0.091671854 -0.025354456 0.18324843 -0.11728734 -0.24800394 -0.073736295 0.1942876
424 0.11376327 -0.21650794 -0.019550223 -0.009361162 0.035044987 -0.020996928 0.21220213 -0.28371727 0.063057296 -0.083242446 -0.24949317 -0.14375147 -0.18296024 0.40035635 -0.051846765 -0.15371776 0.09867629 0.06370263 -0.17456716 -0.30322108 -0.015421059 0.25561297 0.031110749 0.080912866 0.37021753 0.10146366 0.06838377 0.041492 -0.0035921521 -0.102569886 -0.032951534 -0.080764435 0.017643673 -0.13980997 -0.20455144 0.020332355 0.057437904 -0.09664383 0.14217563 -0.27209005 0.2069112 -0.020414643 -0.036403764 -0.26214492 0.020334644 0.21871315 0.056363855 -0.13096835 0.0061684833 0.14822306 0.041760232 0.12554651 0.005252276 0.042447116 -0.017000038 -0.16137731 0.08060644 -0.1657652 0.07577493 0.20554934 0.09341964 -0.18856294 -0.17888421 -0.10097527 0.029834645 0.13816848 0.06128001 -0.0643846 -0.2189695 -0.18154052 0.07350796 -0.14739375 -0.0675619 -0.25903496 0.101461954 0.10458599 -0.08598992 0.1621936 0.28765056 0.052753646 0.08917392 -0.26156962 0.18440981 0.1169998 -0.036733296 -0.11474608 0.061744776 -0.047590975 0.101612784 -0.07901867 0.04777954 0.033469003 0.23507547 0.15690883 -0.04764986 -0.024420157 0.25453353 -0.1104693 -0.17405179 0.08528753 -0.120457865 -0.072516814 0.18265446 -0.0064508 -0.21354012 -0.08777123 -0.030255418 0.2915474 -0.09842033 0.13086756 -0.17125975 0.09494939 0.1896982 -0.100192465 0.059327453 0.12608771 -0.13048498 0.14758128 -0.039107334 0.018599741 0.17687427 -0.01659967 -0.008956084 0.074515425 -0.053972557 -0.10373775 -0.07819727 0.21832857
301 0.2056246 -0.14507997 -0.24753734 -0.08271124 0.27055785 0.1592677 -0.16137989 -0.4460721 -0.04822708 0.024776759 -0.3293593 -0.14078009 0.024095787 0.17015076 -0.009908217 -0.031880897 0.099704415 -0.037216093 -0.043505788 -0.2482925 0.041323032 0.13699633 -0.17366341 -0.05804333 0.1043392 0.37886667 0.287094 -0.37798512 0.04109842 -0.11707623 0.049713485 0.08518233 -0.005126365 -0.13188283 0.13423802 -0.05950789 -0.06183971 -0.3259081 0.19419889 -0.53058785 0.03075501 -0.113775365 0.113550894 -0.22034907 -0.16489574 0.17845403 0.32253543 -0.04352372 -0.035612427 -0.020778803 0.03510793 0.07706556 0.29021692 0.11186348 0.035685882 -0.10434385 0.28216296 -0.06292384 0.16850431 0.28301904 -0.03308059 0.057518672 -0.15367888 0.07912317 -0.2714549 0.19909798 0.25141677 0.07882616 -0.17883512 -0.014912479 -0.018791016 0.0061800852 -0.10787116 -0.03413491 -0.23383376 0.036516123 -0.23448636 0.11782677 0.15845768 -0.23950411 0.2067236 -0.16371895 0.1654031 0.08052364 -0.0023723326 -0.16429567 0.20982906 -0.1792658 -0.021442985 0.05823731 -0.004558948 0.02926368 0.06201913 0.27126795 -0.13470568 0.027901242 -0.066847675 -0.1917331 -0.033427835 0.10564451 -0.11316425 -0.07745104 0.16715984 -0.0733312 -0.018850448 -0.14453128 -0.15233731 0.278626 -0.038855284 0.1676645 -0.1613841 0.0608344 -0.014895009 0.1545509 -0.17299828 0.19374308 -0.090444334 0.3268795 -0.002468813 0.20722081 0.13199468 0.010893049 0.027458983 0.11873426 0.0067415196 -0.08744745 -0.043673128 -0.0077365763
282 -0.0049781892 -0.23430628 0.027466487 0.05798628 0.12611286 0.056340083 0.055369217 -0.20994979 0.13987756 -0.17234884 -0.08720346 -0.1031178 -0.1536578 0.42211083 -0.06693246 -0.08272212 0.04321433 0.12618415 0.15693352 -0.15548325 -0.18610254 0.17360069 0.10335379 -0.049190376 0.27216616 0.2218722 -7.5397955e-05 0.06749078 -0.009073627 -0.074058376 -0.009211575 -0.037219945 -0.10330389 -0.09113792 -0.027014071 0.041363742 0.12495614 -0.09903474 0.091743365 -0.34526035 -0.097155094 0.055405192 0.011935061 -0.17111908 -0.024030268 0.27023488 0.061107736 0.00955646 0.16315421 0.10181953 0.18186532 0.051106375 0.18397929 0.075744815 -0.01986059 -0.15208946 -0.01536294 -0.116018 0.12247351 0.24241272 0.058552355 -0.08173719 -0.25949666 -0.12480303 -0.10410468 0.12965831 0.046975747 -0.12401206 -0.28408402 -0.00054431177 0.1709736 -0.008247026 -0.13174295 -0.21717514 0.16646338 -0.04114911 0.1152082 0.044347562 0.19110483 0.19029094 -0.033393368 -0.25969547 0.17153217 0.059373163 -0.026784474 -0.25729722 0.118785985 0.034594454 0.09562353 -0.032432005 0.042752028 0.038698126 0.077951506 0.07660491 -0.00039728096 -0.052854687 0.117320225 -0.038548782 -0.023311725 -0.022809766 -0.15709332 -0.23177473 0.15159908 0.052323867 -0.19087888 -0.0526431 -0.13955657 0.21445799 -0.04991546 0.029789386 -0.24366947 0.016233975 0.13352583 -0.010513524 0.10076644 0.010096586 -0.20471169 0.18267806 -0.12062674 0.039079327 0.054321613 0.025697391 0.010229538 0.04348167 -0.0844623 -0.28790474 -0.214838 0.27066827
333 -0.005807967 -0.30761665 0.048549842 0.011333979 -0.13827798 -0.08377446 -0.11492948 -0.107668616 0.15679953 0.02713448 -0.02243062 -0.15947932 -0.10846578 0.14146556 0.050797407 -0.19797027 0.13421096 0.14610559 0.042883385 0.03658142 -0.1551102 0.07378967 0.06640328 0.032490414 0.29507145 0.0633169 -0.2185293 -0.18991746 -0.0872427 -0.0763153 0.09182274 0.058163933 0.1284117 -0.15330997 -0.17216769 -0.004600743 0.018669361 -0.16394474 0.006643338 -0.1638828 0.057879705 0.1411124 -0.27057427 -0.5720943 -0.026848594 0.15659066 0.10652054 -0.25985694 -0.12116134 0.015956612 0.10745137 -0.08697604 0.22697635 -0.07728356 0.0065610157 -0.117501184 0.059910785 -0.064766265 0.15638381 0.34976247 0.15023044 -0.20584235 -0.04156398 -0.06720554 -0.19041108 0.23504402 0.010192855 0.072460204 -0.27485272 0.021268943 0.16589797 -0.18953703 -0.01613371 0.101533875 0.09945797 0.08940973 -0.18017434 -0.035750084 0.11197067 -0.16807927 0.19135498 -0.107413426 0.121743575 0.33615726 0.13043733 0.01601448 0.14100958 -0.0918082 0.21697162 -0.17086141 -0.006161978 0.19646093 0.2434073 -0.052906774 -0.038520377 -0.02624977 -0.025141139 -0.07336676 -0.1716735 0.049465332 -0.06148793 -0.10447179 0.15321009 0.19501927 -0.19151908 0.1779628 -0.17026994 -0.0058135465 0.04876885 0.12357292 -0.118843906 -0.19567238 0.12650497 -0.17870122 -0.011641807 0.0997288 -0.1169592 -0.057767265 -0.0238769 0.113640554 0.4308491 0.09659271 -0.053859085 0.17002751 -0.27314463 -0.05594803 -0.053986322 0.17093064
820 0.05022185 -0.28544128 0.08926254 -0.07997854 -0.028644398 0.02952123 -0.072338104 -0.04441134 0.19694884 -0.11918614 -0.10121378 -0.13193429 -0.18649702 0.3069237 0.090436265 -0.045725506 0.22106746 0.044296224 -0.09130128 -0.28198013 -0.07886305 0.15470979 0.06798218 -0.06668114 0.2984327 0.30773404 0.058744144 -0.23532702 -0.015697721 0.17161594 -0.03551921 0.09626985 0.1508152 -0.019723216 -0.11061752 0.14492768 0.025777964 -0.0021922581 -0.04623258 -0.08463766 -0.10665596 -0.02394128 -0.20313679 -0.3103946 -0.0008292666 -0.09488728 0.18554255 -0.046904296 0.012046778 -0.007274639 0.18849331 0.0008714478 0.20894448 0.21179904 0.027604323 -0.105171904 -0.01584405 -0.061560772 0.2277424 0.12827055 0.01326689 0.13484183 0.018179404 0.19248982 -0.17660211 0.26877087 0.18790604 -0.027303148 -0.18763469 -0.062522694 -0.008583747 -0.087039605 -0.22976653 0.107720025 0.20010951 -0.014821613 -0.09949678 0.14440446 0.075094536 -0.29170522 -0.121407166 -0.07012465 0.11964786 0.06446908 0.26223546 0.045066003 -0.13847256 -0.005784666 0.020644622 -0.06347677 -0.035406772 -0.07962234 0.3523827 0.035800297 -0.05185123 -0.11829537 0.17684188 0.113916904 -0.104006365 0.09583621 -0.31538182 -0.08409674 0.12785196 -0.019150589 -0.0481188 0.10348251 -0.21874805 0.06332034 -0.11454921 0.28649458 -0.118288785 -0.008602054 -0.15907785 -0.05984309 0.030174127 -0.0665579 -0.11540684 0.2000436 -0.028872337 0.23635475 0.11518374 0.0394668 -0.03139397 0.046347402 -0.07902946 -0.070866264 -0.09068168 0.3407756
256 0.009241552 -0.19059718 -0.14468412 -0.1317489 0.19204606 0.040161826 0.07701386 -0.061319824 0.11255875 -0.02992356 0.033064052 -0.022065647 -0.23276515 0.22893417 -0.009501548 -0.23590116 0.17600876 -0.105640694 0.071357355 -0.21301618 0.096257895 0.32959965 0.008354988 -0.06588464 0.38677195 0.12684155 -0.059907436 0.018503938 0.010377708 -0.11021515 0.17913423 0.14347257 0.0564478 0.15558097 0.04088342 -0.026208574 0.27773607 -0.019892588 0.030925663 -0.20905456 -0.095764875 0.09866397 -0.13936453 -0.2985173 -0.023461554 0.080491014 0.00042611393 -0.13597873 0.014992964 0.0011731909 0.07313163 0.03659519 0.07369565 -0.04781399 0.060906958 0.008711857 -0.20775755 -0.2487653 0.16289493 0.19081147 0.092898875 -0.1148885 -0.14062907 0.03506258 -0.2392693 0.07722799 -0.14631957 -0.1340296 -0.3773245 -0.13933212 0.23361032 -0.002315794 -0.11549417 -0.12006772 0.25043228 0.10574447 -0.092626825 0.17076646 0.070021786 -0.09560244 -0.010723971 -0.12578231 0.09772662 0.19371583 0.13667235 -0.15575588 0.12052149 -0.08289217 0.041880365 0.067277014 0.067932606 -0.08398106 0.3278485 -0.13587375 -0.056808237 -0.10659767 0.08266742 -0.050625402 -0.12974143 0.2232256 -0.1530034 -0.17953022 0.3769313 0.010289968 -0.042841926 0.074364066 -0.11513795 0.0848714 0.049932502 0.12955524 -0.23508082 -0.020887598 0.08264125 -0.041885518 -0.054013483 0.17750679 -0.28879938 0.18679737 -0.22607459 0.00096114044 0.022805491 -0.088641815 -0.053614847 0.085234754 -0.17028725 -0.2319347 -0.014096965 0.16168465
115 0.007642534 -0.37603438 0.1233841 -0.050304662 0.15721218 0.2115898 -0.026486939 -0.03859412 -0.049946435 -0.34156084 0.007637134 -0.19502108 -0.057097897 0.18637627 0.021157388 -0.26997143 0.22921503 -0.028675687 0.16375141 -0.08842035 -0.09305955 0.23040307 0.21730241 -0.09090523 0.33288446 0.025628982 -0.24413718 -0.14970066 -0.095030986 -0.013332126 0.11644855 0.20576286 0.058734626 -0.19675745 -0.16949923 0.08418972 -0.023847831 -0.077951364 0.028328532 -0.1596387 -0.12489277 0.11116345 -0.38192424 -0.17123426 0.09125073 0.05436051 0.23250085 -0.23986106 0.0025312246 -0.1442633 0.047028452 -0.070022345 0.14875631 0.08995789 0.080697246 -0.09410203 -0.058887813 -0.15692961 0.120514326 0.24244696 0.059918117 -0.085918464 0.023343157 0.052952424 -0.120222755 0.1533312 0.23121683 0.1320615 -0.26478326 0.03641446 -0.11894959 -0.30444893 -0.048700083 0.11993581 0.11647276 0.07010481 -0.101290755 0.01399257 0.12466713 -0.07842863 -0.04098702 -0.32810214 0.10810809 0.34096742 0.19477427 0.028229807 0.18381217 0.004128077 0.029021602 -0.14493051 0.0043413383 0.030264312 0.2552351 -0.032840114 -0.06400703 -0.09315869 -0.024512878 -0.08835925 0.07453881 0.017852085 -0.23191176 -0.14796309 0.2909613 -0.102958 0.062511995 0.06427802 -0.038543746 0.16717093 -0.002642179 0.10785629 -0.085319586 0.046147957 -0.02743796 -0.1960308 -0.09706064 -0.16008855 -0.20778766 0.048638076 -0.11359613 0.047215004 0.24512535 0.1794227 -0.019682188 0.056756627 -0.13587448 -0.24700895 -0.04410634 0.10321228
58 0.033103492 -0.16500321 0.14095557 -0.0030496402 -0.12118368 0.18841784 -0.15829846 -0.19595912 0.07981318 0.034639902 -0.116888806 -0.07196727 0.008231841 0.20096602 -0.123053096 -0.413825 0.121853985 0.20579122 0.256152 -0.14207779 -0.10280679 0.12649754 0.12893598 -0.03871485 0.3553094 0.046677124 -0.19069783 0.06346355 0.14173709 0.052616358 0.07489181 0.052138418 -0.06758588 -0.16016737 -0.15032183 0.058823284 0.01234875 -0.031394426 0.08559223 -0.100975215 0.075289704 0.11995788 0.2294063 -0.05054826 0.099884585 0.17760299 0.03174421 -0.19295593 0.06904061 -0.018913832 0.06955414 -0.20901713 0.2581808 0.2536999 0.057596866 -0.06461585 -0.11677925 0.17659864 0.17974836 0.28375858 0.09270706 -0.07260512 -0.15233617 0.044415563 0.0043386803 0.22991854 0.06932617 -0.2426777 -0.21434113 0.031755075 0.14765887 0.059022505 0.09850003 -0.048583947 0.24126744 0.05465371 -0.04079287 0.12683603 0.03434674 0.009275433 0.05904024 -0.046818875 -0.017252926 0.25063956 0.2212739 -0.14271764 0.27902356 -0.23529214 0.022846859 -0.18986842 0.11658202 0.26506338 0.07726297 -0.08657649 -0.20327924 0.10185894 -0.18785861 -0.09379031 -0.06529755 0.13150625 -0.02098118 -0.07196962 0.31498757 0.30514556 -0.26316497 0.121173285 -0.24386731 0.009252257 -0.1291762 0.03121064 -0.31165725 0.019480871 0.122215495 -0.17884572 -0.044275753 -0.11359833 -0.18818893 0.23849756 -0.14921273 0.04119526 0.13438813 0.105276875 0.10219964 0.11242096 -0.038315263 -0.20756933 0.002987581 0.15446626
212 0.022843458 -0.21227661 -0.03944371 -0.12725584 0.18133995 -0.002680888 0.0061859367 -0.19259621 0.08069443 0.024147946 -0.055987775 0.00985919 -0.17743312 0.3446585 0.02075297 -0.28307483 0.15289746 0.13785587 0.25677952 -0.05328169 0.035682753 0.20663486 0.106475346 0.07324814 0.508716 0.17005587 -0.09583984 -0.14545608 -0.046924006 -0.07652276 0.17840952 0.19945462 0.019438688 -0.10450079 -0.12930769 0.08053095 0.39192012 -0.15068923 0.13544105 -0.07860373 -0.097116485 0.11002689 -0.18324618 -0.31474984 -0.024102127 0.21886499 0.08850328 -0.12082613 0.17051926 0.0742885 0.040610317 -0.0023288133 0.049415737 -0.014847298 0.07693659 -0.15834115 -0.11824206 -0.14459717 -0.07504743 0.08592698 0.0010242902 -0.10119663 -0.18104568 0.044525187 -0.0920878 0.14101739 -0.08566231 -0.15736859 -0.23943087 -0.14675461 0.16217959 -0.11249125 -0.058374397 -0.22545506 0.12848097 0.16020274 -0.064544305 -0.024777353 0.16947009 0.011271595 0.07147024 -0.18024604 0.09889278 0.17037444 0.20762116 -0.08770325 0.05734857 -0.1040772 0.054606505 -0.019448558 0.0011441191 0.1415132 0.21144354 -0.15914164 0.004535344 0.016440552 -0.08295909 -0.015684599 -0.036594387 0.13026576 -0.0025907054 -0.28991598 0.1743386 0.04987779 -0.1160003 0.006383447 -0.117699206 0.11228344 0.041166455 0.19454812 -0.18991636 -0.0137953535 0.19067864 -0.16493453 -0.06532453 0.11270849 -0.19716105 0.09505784 -0.19189091 0.1090452 0.13225186 -0.06314428 0.053475846 0.18783589 -0.24516663 -0.2758263 -0.1912293 0.10449464
63 0.2548155 -0.0894199 0.11002212 0.01163466 0.010547281 0.19981019 -0.060000926 -0.11217751 0.15614021 -0.03375534 -0.051345706 -0.081140034 -0.13929997 0.06942713 -0.24858697 -0.340711 0.07038434 -0.04668509 0.13058244 -0.2343104 -0.04661352 0.20476165 0.078308895 0.022804068 0.3401037 0.07127872 -0.15373497 0.10367341 0.06300427 0.02871531 0.104468636 -0.097160734 -0.07663426 -0.16160274 -0.12679212 0.007225192 0.049414568 0.022138242 0.035857372 -0.07016351 0.00677405 0.113487184 0.24950087 -0.121327616 0.15641238 0.10879919 -0.0030149862 -0.21425353 -0.0025382782 -0.08027464 0.13970011 -0.18566662 0.07295251 0.34333324 0.15652743 0.032404922 -0.11717886 -0.020192115 0.14465405 0.17721422 0.012153201 0.032482933 -0.19764598 0.13703178 -0.08221217 0.18651201 -0.08138027 -0.3572011 -0.26287958 -0.043192513 0.19128545 0.030427549 -0.012618293 -0.16489016 0.3921762 0.09497914 -0.04560026 0.22942448 0.11876965 -0.032864705 0.06450437 -0.06289836 -0.0021537528 0.09602441 0.08577209 -0.126446 0.30156195 -0.14425647 0.091359235 -0.19670707 0.11278686 0.08159489 0.06944514 -0.020406527 -0.23922044 0.1788513 -0.19245906 -0.10059122 -0.07192528 0.33393866 -0.083501495 0.010664411 0.28806874 0.1978403 -0.22663103 0.2436098 -0.147293 0.14670394 -0.104023546 0.19375882 -0.22375081 0.16160011 0.022144152 -0.13198137 -0.18764625 0.0002791193 -0.18242489 0.22360325 -0.001295714 0.007778674 -0.0494504 -0.06406233 0.026209354 0.039918534 -0.05197575 -0.11719417 0.050525904 0.24070035
96 0.103647314 -0.35507405 0.29788667 0.22225209 -0.05645343 0.1493779 -0.05910918 -0.40755966 0.010899822 -0.19772099 -0.19793642 -0.23797114 -0.019225648 0.026307378 -0.060683753 -0.1947745 0.41969377 -0.01370032 0.065014094 -0.16330202 0.14371301 0.28292894 0.33741862 0.037250906 0.0782906 -0.023020132 -0.1763576 -0.09739405 -0.2805233 -0.1467443 0.059376437 0.038729295 -0.0056238915 -0.27626327 -0.03500871 0.13046852 -0.041993532 -0.06191121 -0.12767084 -0.19859165 0.021099629 0.010026144 -0.028429974 -0.28896436 -0.05613204 0.2922177 0.22134756 -0.35500163 -0.17315747 0.14913884 -0.097888224 0.036849476 0.013375878 0.20804314 0.14101475 -0.14228675 0.09526618 -0.06211488 0.14641877 0.33797726 0.14405651 -0.03398441 -0.038134504 0.11922048 -0.0886802 -0.03861842 -0.12213532 0.15820345 0.13202408 -0.26896453 0.08894144 -0.246397 -0.15200283 0.0066260076 0.1709116 0.18441735 -0.22065839 0.04031931 0.07199817 -0.3061152 0.21877344 -0.2777744 0.15894859 0.11792837 0.2190601 -0.08900643 0.12542273 0.050555125 0.17966096 0.11760913 -0.13323128 -0.05944093 -0.04199127 -0.039014313 -0.20638472 -0.11537333 -0.048154883 -0.24634388 -0.11563606 0.06316805 0.062105887 -0.004871754 0.19963594 0.035382304 -0.22770497 0.06360973 -0.040562388 0.12297304 -0.12726805 -0.0031981282 -0.1241994 -0.1367424 -0.030453164 -0.052702133 0.029590385 -0.18935828 0.073236294 0.21855019 -0.032866552 -0.09017112 0.47862703 0.01600605 0.040943243 0.033948068 -0.11823685 -0.23907262 -0.22553222 0.055985108
405 0.115122005 -0.06239979 0.06654481 0.05200159 0.069804154 0.19759066 -0.061190486 -0.08265016 0.15271625 -0.10415564 0.023159837 0.08793926 -0.31873593 0.24879748 0.07126536 -0.20945308 0.13823605 -0.12059716 -0.18293947 -0.002217021 0.07815366 0.137601 -0.012641288 -0.08484244 0.12391734 -0.06114278 -0.021625767 0.025080206 -0.025590254 -0.10846865 0.11900993 -0.07814794 -0.020644113 -0.06518069 -0.114671536 0.11343948 0.04513167 -0.12683529 -0.005780452 -0.107474335 -0.13367428 0.04525044 -0.2083091 -0.17664345 -0.019079698 0.19486867 -0.028736573 -0.09212877 -0.08281168 0.1753475 -0.07764646 0.060760785 -0.058858473 0.16857241 -0.004078548 0.14824305 -0.022666285 -0.19406287 0.0087275 0.16463283 0.045272093 -0.25719246 -0.15778162 -0.04376199 -0.123652324 0.15999885 -0.09641707 -0.043846197 -0.4894171 -0.2583734 0.07426894 -0.059701927 0.15347396 -0.099747695 0.32481936 0.11512023 0.00041889955 0.0094194 0.18491742 0.010342299 -0.10204285 -0.0931387 -0.018490542 0.013940723 0.067403294 -0.19101438 0.30923858 -0.24183507 0.2233542 -0.07732441 0.02372036 -0.031339787 0.19784456 -0.09343311 -0.040860698 0.04015181 -0.060928054 -0.20986493 -0.28042492 -0.08626669 -0.044559207 -0.09228223 0.2771472 -0.0156267 -0.16205142 -0.030546267 -0.12604865 0.17101295 -0.065684944 -0.025024567 -0.15605688 0.15244447 0.036072638 -0.080249876 -0.18625106 0.106009424 -0.27178174 0.16164821 -0.1691699 0.16429976 -0.0027672665 -0.014521671 0.13841043 0.19618164 -0.280196 -0.30682042 -0.024233753 0.33652472
280 0.029628146 -0.13449627 -0.0042331754 -0.23706485 0.024950603 -0.05876277 0.008143411 0.022408385 0.16947947 -0.22097196 0.12104015 -0.1775159 -0.3229656 0.31488168 0.086108 -0.0033118308 0.08675211 -0.065611795 -0.03516106 -0.13348062 -0.19813278 0.29852062 0.035804432 -0.18246135 0.19981931 0.15969367 0.0076722982 -0.105943695 -0.14029749 0.12335694 0.1515192 0.016557805 0.16779988 0.07324113 -0.086391345 -0.034946766 0.03641344 -0.20178495 -0.106728226 0.045031376 -0.13470301 0.02726245 -0.16745582 -0.062338237 0.049486484 -0.027299749 0.19720764 -0.24138197 0.12982446 0.17267734 0.046471752 -0.086917475 0.11054039 0.28998315 -0.13628887 -0.1373086 -0.07343287 -0.1001969 0.13723178 0.020885106 -0.019555511 0.068036065 -0.06336797 0.0269267 -0.25853518 -0.065880775 0.11914374 0.014511778 -0.22175863 -0.29184058 -0.06514065 -0.058346804 -0.22949114 -0.040823326 0.08824774 0.1703987 -0.16081569 0.16304016 0.19725116 -0.10720481 -0.042807348 -0.14749868 0.1130516 0.3132249 0.17324375 -0.12982665 0.054172553 -0.065252885 0.21769093 -0.13476303 0.07321517 -0.06489048 0.31226408 -0.02984045 -0.07032515 0.017578878 0.21205926 -0.008777791 -0.02452446 0.14338347 -0.2339839 -0.17575267 0.23758079 0.1996776 -0.016843744 -0.1553197 -0.11308228 0.36457497 0.02282195 0.042372823 -0.03390314 -0.13331649 -0.094697386 0.053090543 -0.123411864 -0.13785726 -0.08883558 0.17109486 0.08519696 0.14752518 0.035916653 0.021201057 -0.14894743 0.05379287 0.07854377 -0.09185998 0.04281601 0.07329196
169 0.061659653 -0.1780279 0.11118299 0.08121966 0.12234297 0.13724855 0.017477602 0.04055215 0.15301229 -0.18935639 0.15183936 -0.22631285 -0.07199728 0.11053086 -0.06651275 -0.21983571 0.25509804 -0.24472149 0.11680797 -0.06802883 0.00827573 0.20046847 0.24206376 -0.035341408 0.19495611 -0.09811909 -0.10559355 -0.124608144 -0.20460598 0.061983924 0.110901564 0.027245896 0.0773722 -0.20752035 -0.14020444 0.0046599503 0.20401986 -0.124314584 -0.19050828 0.042771302 -0.073015235 -0.0006596474 -0.2637345 -0.22890766 -0.0175085 0.06296692 0.17762531 -0.26564416 -0.02711932 0.103793435 -0.022249592 0.026811287 0.06239506 0.18205792 0.04279643 -0.10021046 -0.13367149 -0.30939245 0.017566742 0.30809763 -0.022715673 -0.10592358 -0.0055295182 0.074768454 -0.12181592 0.08262384 -0.08156487 0.1325227 -0.21804076 -0.1602686 0.007269831 -0.13536185 -0.088349454 -0.068489365 0.22736219 0.048044086 -0.09641375 0.10486829 0.22731172 -0.080351874 -0.05057659 -0.33507708 0.08955537 0.19284417 0.17544897 0.026179845 0.12354225 0.04023595 0.044012096 -0.038108695 -0.009575732 -0.12548897 0.14362553 -0.06619836 -0.03572916 -0.051719457 -0.015026385 -0.18184873 -0.016290199 0.23482509 -0.24874748 -0.06928679 0.2466877 -0.031016013 0.028652223 0.11485758 0.071986824 0.25742882 -0.09892865 0.09801608 -0.13145053 -0.056214757 -0.02379792 -0.1615584 -0.2088941 -0.14974591 -0.24563222 0.1291465 -0.1286507 0.079429105 0.26518485 -0.070167765 0.034747403 0.10405972 -0.25853223 -0.14955273 -0.024418402 0.18079135
165 0.069764845 -0.42014512 0.01138115 -0.0042461134 0.13657719 0.2481772 0.06781809 -0.0012234162 0.015269039 -0.17746438 0.1444027 -0.21492566 -0.122088924 0.04284464 0.009817591 -0.10634033 0.23007326 -0.06964948 0.15334132 0.013488755 0.024294442 0.18090726 0.07622353 -0.11224087 0.26281187 -0.031826686 -0.0794304 -0.2663218 -0.2033593 -0.030710826 0.13614957 0.034960985 -0.015008351 -0.22240545 -0.058900487 0.0007523963 0.2715508 -0.14199458 -0.17834061 -0.19477312 -0.28275117 0.28361315 -0.42474958 -0.320682 0.018600084 0.12035735 0.1935489 -0.34035024 0.103056446 0.12792143 0.18096249 -0.15344834 0.113779396 -0.018579794 0.100793466 -0.22584565 -0.16206416 -0.16656344 0.16609436 0.26687893 -0.046696384 -0.05471918 0.0023236147 0.0012446416 -0.23135528 -0.090198874 -0.124217235 0.18423674 -0.2048952 -0.24644683 0.017640514 -0.07707648 -0.2565636 -0.016704509 0.17178552 -0.045511886 -0.048667796 0.0023489196 0.06498476 -0.061267734 -0.08638889 -0.32881963 0.19577238 0.09093811 0.07008788 -0.0046270755 0.17358045 0.027016738 0.05416794 -0.14336526 -0.12464974 -0.090339586 0.16099034 -0.08257611 0.010702073 -0.0056119515 -0.038922034 0.009246494 -0.061405472 0.21893929 -0.3160684 -0.16800311 0.22002825 -0.06979596 -0.08493771 0.21587071 -0.022532856 0.1751905 -0.049216688 0.017019596 -0.13511261 -0.084180005 -0.21027508 -0.14292127 -0.17143133 -0.082606845 -0.19239305 0.024434691 -0.1268941 0.103195645 0.30854982 0.06629984 -0.07606346 0.115903914 -0.19597611 -0.014396129 -0.13029881 0.11069888
252 0.06562199 -0.39611095 0.22573783 -0.1354668 -0.056245953 0.17134145 -0.14122534 -0.17147678 0.05209561 -0.10138588 -0.107940495 -0.13989405 0.117632635 0.06308816 -0.023674987 -0.35924482 0.20473206 0.055868804 0.24879749 -0.15853639 -0.05796096 0.08755968 0.12082407 0.03682423 0.36693865 -0.001243562 -0.17467552 -0.023195332 0.071266025 -0.05273399 0.12615256 -0.014544867 -0.14237915 -0.25388923 -0.05687619 -0.0018279542 -0.014145967 -0.019256767 0.120341375 -0.012172389 0.08163936 -0.036886077 0.20855343 -0.06323675 0.050135378 0.10801559 -0.010756433 -0.12896965 -0.042410724 0.0061929994 0.035027545 -0.092165135 0.19430894 0.30932504 0.023569113 -0.09485585 -0.0065408074 0.046787772 0.055288486 0.35559914 0.008325515 0.011056905 -0.16579834 -0.008014233 0.03733265 0.09765796 -0.024637282 -0.1664878 -0.1361168 -0.12554184 0.09500917 -0.015433072 0.064765885 -0.09047327 0.27089044 0.031488676 -0.11382641 0.22151256 -0.05307811 -0.057289872 0.24789828 -0.07726349 0.01395869 0.18359478 0.13893913 -0.011334733 0.33068386 -0.19501905 0.0974598 -0.068697535 0.14298446 0.32192814 -0.13050742 -0.03408151 -0.24767666 0.17275403 -0.06848698 -0.11368789 -0.067966536 0.22362907 -0.046019513 -0.020762773 0.08542068 0.2770555 -0.2540302 0.11036123 -0.23376487 0.109445855 0.03208751 0.10772647 -0.40615514 0.14806767 0.08630221 -0.09280517 -0.19514906 -0.17485292 -0.14509568 0.20847028 -0.14000115 0.086026266 0.2148942 -0.11522027 0.12721574 0.09358161 -0.058747012 -0.07215074 -0.12399627 0.18331651
494 0.039950784 -0.23622043 0.06730422 0.048126053 0.22691928 0.007853998 0.064332105 -0.32275206 0.071369454 -0.041358843 0.06492837 -0.13189533 0.06359004 0.20797408 0.03975718 -0.036131553 0.084687784 0.12461067 0.13702647 -0.25838333 -0.17062867 0.33295932 0.021904014 -0.030026684 0.17589472 0.15321295 0.063516326 -0.31829876 -0.15584782 -0.119811215 -0.06339068 -0.14296085 -0.04607726 -0.07207851 -0.034345128 -0.2183835 0.16942109 -0.19797476 0.06285513 -0.35416132 -0.1881345 -0.07411672 -0.13381413 0.07435545 -0.101651736 0.32532483 0.18169998 -0.08212146 0.033205293 0.29034698 0.28615782 -0.026163043 0.1555317 0.30970532 -0.21057992 -0.49463397 0.022714823 -0.030872839 0.059143327 0.23264676 0.06486087 -0.018499587 -0.0945698 -0.085370176 -0.13678306 -0.021195592 0.020114295 0.1475374 -0.15325582 -0.17494334 -0.17541899 0.026435334 -0.29532945 -0.32272488 0.05833865 -0.015847988 -0.02536367 -0.04403629 0.09542393 0.102285415 -0.04611092 -0.17884487 0.27453515 0.017895786 -0.18986686 -0.333839 0.118791975 0.06480439 0.013838621 -0.14270154 -0.017079173 -0.010611808 0.12660955 0.07195822 0.23288068 0.0875154 0.13344821 0.01631129 -0.06191523 -0.15576941 -0.15383047 -0.27723414 0.030814681 0.036631025 -0.12123221 -0.06547613 -0.14092638 0.24601224 0.02779615 -0.0009584399 -0.35409892 -0.06727445 0.09511315 -0.06977238 0.17162304 -0.035296172 -0.18550691 0.2638682 0.007701269 0.16278678 0.19266695 -0.08035022 0.15478086 0.034048602 -0.10739798 -0.24474436 -0.3229602 0.18238063
6 0.101057224 -0.21708862 0.18753088 -0.04365655 -0.101574846 0.08884768 0.13197666 -0.16417077 0.15072274 -0.100266814 -0.2591413 -0.058563117 0.029624831 -0.0561656 -0.018114055 -0.0912305 0.09070699 -0.028607177 0.13222891 -0.39393553 -0.23878124 0.19928448 0.029728407 -0.32918656 0.4055815 -0.02740089 0.14948721 -0.21008332 -0.0756613 0.17740394 -0.0068246955 -0.028376156 0.111468054 -0.16519749 -0.044421326 -0.011480092 0.11832458 0.041047957 -0.19537462 -0.07022757 -0.03622778 -0.07290127 0.19944142 -0.000936981 -0.043654937 0.018542688 -0.026701845 -0.17384107 0.004414011 0.13378212 0.13033628 -0.16036567 0.09545586 0.25542116 0.11591105 -0.10834351 0.015388145 0.061515316 0.13208987 -0.0451712 0.015507452 0.15459406 -0.049161527 -0.0556794 -0.18422428 0.1945022 -0.11555315 -0.18364702 -0.24148934 -0.09968243 0.05024961 -0.13841186 0.009898028 -0.11373137 0.3582001 -0.013011392 0.020443372 0.39512566 -0.029485505 -0.11252468 -0.005303609 -0.04802934 0.03622321 0.37257662 0.021694656 -0.27340183 0.27810988 -0.3692342 0.18554826 -0.26596278 -0.029959114 0.12172415 0.30250564 0.06471641 -0.038304407 0.34185755 0.10492037 -0.14336352 -0.05682077 0.040026985 0.038172677 0.055150468 0.3301277 0.36096576 -0.2627836 0.13214718 -0.00062374235 0.19895937 0.16471541 -0.11820574 -0.09501065 -0.03070879 -0.0014639546 -0.0637155 -0.113348074 0.19728008 0.076033264 0.287963 -0.025951533 0.10688445 -0.019084133 0.028673617 0.1593253 -0.07323947 0.0070795845 -0.04157772 0.4645853 0.18087931
81 0.11447838 0.06938057 0.032893375 0.16160135 0.20386745 0.13199984 0.012609231 0.014760945 0.06432535 -0.1312086 -0.109309904 -0.1370296 -0.015424626 0.17963119 -0.052286267 -0.15199156 0.103014685 0.025961244 0.29354653 -0.022757227 -0.07260912 0.20316803 0.13866633 0.10417354 0.25743893 0.20605801 -0.095829815 -0.0996881 -0.19413409 -0.064317465 0.013938772 0.16886866 -0.06785218 -0.030972226 0.020040186 -0.057312213 0.11992085 -0.15981594 0.014952846 -0.12993988 0.004021999 -0.067613594 0.120318316 -0.2387527 -0.09058865 0.2470013 0.017088946 -0.076077856 0.06876279 0.07423495 0.23730052 -0.18887882 0.10905441 0.2575273 0.09296344 0.09675301 -0.11847732 -0.09064935 -0.044515222 0.0117957825 0.14498347 -0.08027821 -0.041853398 0.077991284 -0.20369096 0.21120454 -0.2190933 -0.11189872 -0.21631904 -0.13726588 0.23650755 -0.031943534 -0.25697666 -0.207005 0.30897933 0.15793861 -0.022993617 0.09015221 -0.05890836 -0.10820043 0.1259325 -0.22425325 -0.045645125 0.17610785 0.10890745 -0.12486757 0.18874541 0.06824512 0.23816982 -0.06462797 0.255325 -0.004986487 0.09438539 0.0915651 0.034278106 0.01374037 0.011768544 -0.09197487 -0.23579094 0.4035384 -0.008444047 -0.18001467 0.17249815 0.1972831 -0.047522023 0.060663693 -0.021519208 0.18603905 -0.03558085 0.1363846 -0.12202722 0.10254445 0.11025396 -0.047831677 -0.2462344 0.22886923 -0.3607469 0.20142503 -0.19426113 0.10482906 0.074317366 -0.028577697 0.10407148 0.27546197 -0.07937645 -0.1304776 -0.18121932 0.14059742
473 0.23444858 -0.002859278 0.05133793 0.27483696 0.27858937 -0.19559668 -0.08767778 -0.14773367 0.12370415 -0.060148686 -0.087220185 0.052537475 -0.09859342 0.25985307 0.1234606 -0.11361613 0.13838094 0.01820859 0.06355764 -0.14153238 -0.14220946 0.03301955 0.11854856 0.077355966 0.28496823 0.12299038 0.0017099913 -0.260506 -0.13290805 -0.015858091 0.05660173 0.10908778 0.052786622 -0.005008257 0.07485457 -0.08594689 0.23995407 -0.33897302 -0.11311069 -0.2266101 -0.051173825 -0.12943655 -0.119002044 -0.29150048 -0.07635384 0.32337633 0.05017439 -0.047680017 -0.07074741 -0.00419385 0.20841187 -0.240377 0.18472134 0.11638359 0.002671672 -0.04386572 -0.048642587 -0.1362542 -0.098142214 0.09794365 0.011684023 -0.14898671 -0.06372984 0.016337976 -0.20027462 0.3336037 -0.10699396 -0.019789703 -0.18221273 -0.1128111 0.17690751 -0.20042303 -0.18121672 -0.16687809 0.34654126 0.13376811 -0.09096596 0.19005267 0.014907957 -0.16154794 0.11613002 -0.2191526 -0.0160564 0.2536868 0.08856474 -0.20569903 0.16427806 -0.3556589 -0.0044910354 -0.17855169 -0.011413767 0.02862502 0.30444726 0.06885043 -0.09899409 0.20887946 0.0205913 -0.106690675 -0.13691555 -0.04952565 -0.11763815 -0.01692668 0.004372947 0.07628353 0.06998488 0.019984826 -0.052901976 0.073830314 0.032965865 0.22614345 -0.097347856 0.08739971 0.114757866 -0.0100187035 -0.13407888 0.2451566 -0.32908836 0.054725524 -0.087301 0.29542437 -0.086236574 0.08282235 0.12970151 0.07592111 0.06448245 0.043226838 0.024972474 -0.018575298
133 -0.011008609 -0.25458342 0.03233343 0.049981236 0.10069051 0.04781059 0.044231452 -0.105118975 0.3088124 -0.14063172 -0.08848671 -0.3015983 -0.17010489 0.16322894 0.101599716 -0.01364243 0.17198937 0.06436505 -0.03557999 -0.0914735 0.036156084 0.19729736 -0.08834836 -0.15121338 0.09128479 0.105763376 0.12868294 -0.12306829 -0.11696616 0.14638461 0.055985402 0.12713285 0.095831886 0.00478856 -0.06692387 0.010724237 0.03527091 -0.020400412 -0.12567796 -0.26428998 0.066843614 0.20891932 -0.20625094 -0.26946858 -0.08098324 0.013986266 0.19880457 -0.2583771 0.047887214 0.17671661 0.15376131 -0.25063583 0.12369639 0.017248632 -0.06507853 -0.14626408 -0.11243232 -0.03950187 0.2298317 0.19815227 0.017816607 0.049708653 -0.10630488 0.11655795 -0.4855356 0.1310165 0.13020149 0.16766761 -0.1624322 -0.23167577 -0.1319923 -0.1131717 -0.20688461 0.15105784 0.079588264 0.028092574 -0.3655499 0.12803088 0.08530472 -0.29829293 -0.26189223 -0.08575141 0.23341256 0.13212843 0.041296862 -0.20361012 0.16349827 0.10617591 0.21122992 -0.17372124 0.010054805 -0.21378823 0.28048503 0.0791418 -0.020746198 -0.16124842 0.14575571 -0.00017492851 -0.02461574 0.3007674 -0.37937656 -0.18540575 0.38271168 -0.15159577 0.06787183 0.014597134 -0.25352576 0.20340519 -0.16413406 0.123768575 -0.025766512 -0.149689 -0.052028213 -0.081077926 -0.01141553 -0.024433536 -0.04143681 0.115738094 0.08815419 0.05817341 0.005748828 0.024145648 0.00065610197 -0.018228685 -0.032928962 -0.05965024 0.04586256 0.061973073
340 0.20429309 -0.32103637 0.052393723 -0.064267166 0.10854721 0.11352167 -0.009333001 0.06677183 0.13543789 0.028951617 0.10499766 -0.19395849 -0.38606998 0.24505618 0.2511125 -0.097913675 -0.0072165043 0.024277475 0.014277807 -0.0053770244 -0.04097626 0.0452008 -0.100796916 -0.0063444097 0.055239007 -0.015598286 -0.01104059 -0.15250753 0.2097966 -0.22486365 0.16333055 -0.11294567 -0.040033378 -0.31308582 -0.10899025 0.01235011 0.02813675 -0.10708498 -0.005770696 -0.098895304 -0.18685511 0.19965588 -0.24619107 -0.20959044 0.21864201 0.15999807 0.0014549776 -0.22954513 0.29008162 0.05805529 -0.20518379 0.14747906 0.055664252 0.13185452 0.085477024 -0.008176508 0.101911694 -0.26923913 0.08193186 0.2735192 -0.18336548 -0.07203939 -0.24115562 -0.09254308 -0.18421967 0.35675713 0.035133854 0.09595926 -0.1379559 -0.37970948 -0.06700604 -0.1275099 -0.0885659 0.0901991 0.21247013 0.045717455 -0.32124305 -0.036143612 -0.22474405 -0.15175994 -0.047481243 -0.18512899 -0.050818294 -0.032736555 0.0145680085 -0.23646232 0.15343687 -0.2398034 0.20765367 -0.25933376 0.18937378 -0.2221344 0.15974022 -0.12161954 0.041467093 0.01212859 0.084039636 -0.026058212 -0.095394105 0.148698 -0.19787605 -0.049531363 0.13995428 -0.10169652 0.015277827 0.18244193 -0.09289129 0.19500482 -0.21349852 0.15331924 -0.11321633 -0.13305475 -0.10972117 -0.02046943 -0.22631952 -0.044003285 -0.24547574 0.1319304 -0.04790691 0.14441048 0.18610364 0.13693881 -0.05121706 0.08063026 -0.2648268 -0.30880994 -0.16673881 0.17398772
17 -0.077945925 -0.22159134 -0.068176076 -0.03841975 0.079943985 -0.041991852 -0.11320879 -0.09290036 0.22842573 -0.053183965 -0.03571424 -0.041114558 0.051450543 0.5034309 0.10148073 -0.17270343 0.106926724 0.14953333 0.09289491 -0.06666255 -0.16061778 -0.1813507 0.11615061 0.0019370754 0.24295399 0.397385 -0.08874068 -0.2878445 0.16137007 0.036640972 0.21034336 0.23180056 -0.12397944 -0.20560555 -0.037738826 -0.049786173 0.04526201 -0.14882144 0.12353714 -0.024675122 -0.11269797 0.16739848 -0.19464505 -0.1354085 0.12284752 0.20596355 -0.0102129 0.006830867 0.25012577 0.21343835 0.09239276 -0.16548973 0.34508637 -0.018993564 -0.07864347 0.026644135 0.027443808 -0.05655418 0.07542975 0.23804514 0.20543586 -0.22471951 -0.07888656 0.04283292 -0.083188064 0.0037086918 0.19570051 -0.014772407 -0.32221952 0.012735006 0.03969728 0.086302914 0.08076614 -0.04651677 0.18902403 0.10930561 0.036438838 0.2228677 0.1765173 0.027741637 -0.06324965 -0.3151501 0.27725458 0.2874845 -0.045764156 -0.09337963 0.05376017 0.0035342013 0.19785051 -0.20974325 0.07835335 0.06866396 0.059633758 -0.01884378 -0.04850514 0.016089974 0.16370279 0.043116126 0.12273582 0.16032466 -0.004691458 -0.17621697 0.37905538 -0.00729712 -0.08782135 -0.25164068 -0.23481418 0.21679124 -0.13268271 -0.04191959 -0.1710048 -0.055566877 0.028370608 0.08664785 0.07698447 0.093311764 -0.2540915 0.04823583 -0.09358065 0.058312852 0.057792712 0.20221083 -0.021833267 0.19429488 -0.100468874 -0.5273414 -0.34077686 0.11518431
44 0.29633945 -0.05883078 0.034372617 0.10345904 0.13525915 0.16833913 -0.239055 -0.18739735 0.40635452 -0.16896923 0.041973874 0.071683064 -0.3715498 0.21907893 0.09320868 -0.078131646 0.30982247 0.26150328 -0.030178845 0.04953031 -0.012032138 0.4355584 -0.025442623 0.10237418 0.30810577 0.23523669 -0.21750699 -0.06875954 -0.26878262 0.07502476 0.14939381 -0.03937828 -0.1195415 0.06706463 -0.025767205 -0.11423754 0.19023617 0.011020912 -0.042294785 -0.091890216 -0.35623467 0.078125894 -0.06476774 -0.118641965 0.043836918 0.24556136 0.20294406 0.23703407 -0.15402283 0.13282031 0.09202489 -0.13609271 0.17900282 0.10013695 -0.10960304 0.04696403 0.15750201 -0.15191995 -0.13142176 -0.038891263 0.13939515 0.0067201504 -0.21636328 0.2302876 -0.096422166 0.17228754 0.0065210615 -0.02930959 -0.15964554 0.10797937 0.12594025 0.1708007 -0.2585984 -0.123928376 0.22037658 0.17340599 -0.14269805 0.05482918 0.019229723 0.13247119 -0.11442533 0.03684447 -0.13735275 0.023233883 -0.046245664 -0.09193578 0.20841642 -0.19552875 0.03466308 -0.12334244 0.018159516 0.0038119599 0.43336335 0.17409945 -0.033625737 0.042165607 0.049246382 -0.148727 -0.047892835 0.43926454 -0.43910998 0.011034187 -0.07071497 0.0027765934 0.081077494 -0.060376454 -0.06951019 0.026610034 -0.033348143 0.011564032 -0.19469443 0.12017892 0.088861085 -0.121687435 -0.12323549 -0.06159196 -0.1567158 0.024347365 -0.14679086 0.0728108 0.0003027613 -0.0964276 0.11575183 -0.025467053 -0.03480449 -0.21140152 -0.35330528 0.21359167
411 0.103059545 -0.015657455 0.44511667 0.3463626 -0.05366156 0.15570834 -0.013493381 -0.3709965 -0.021876305 -0.18882366 -0.15684524 -0.0053609493 -0.030522663 -0.20169525 -0.16835715 -0.41720542 0.26770198 0.03709485 0.19162688 -0.32241797 0.0033676412 0.16869906 0.186424 -0.1561261 0.32464468 -0.046634328 -0.19674066 -0.21160145 -0.10611808 -0.09886759 0.10092545 -0.016446896 0.020531414 -0.25552952 -0.03999248 -0.06347749 0.2055755 -0.09578876 -0.2228386 -0.2689201 -0.050044537 -0.12462426 0.014178775 -0.07963556 0.061129693 0.09496898 0.048077915 -0.22765307 -0.24520908 0.06664717 0.00089898583 -0.042300917 0.23035285 0.331655 0.2865413 -0.11657533 0.1073487 0.0042767576 0.100675635 0.20756468 0.09363703 -0.0969301 0.074898325 0.0802011 -0.04011453 0.13804564 -0.14616428 -0.013035275 -0.018231468 -0.09818614 0.24012586 -0.19974944 -0.11396262 -0.04777733 0.2477686 0.07607529 0.09553274 0.101018794 0.15033545 -0.22820728 0.03401319 -0.086173 0.05039673 0.2720343 0.14943472 -0.33499804 0.29039806 -0.22360468 -0.02941151 -0.16583486 -0.019886201 0.18993075 0.3307656 0.013869759 -0.03640511 -0.07335818 -0.06857822 -0.26904076 -0.21236955 -0.07346499 0.22298369 -0.014949499 0.37820113 0.17675233 -0.079363324 0.17021686 0.052971695 -0.06718809 -0.07839974 -0.004932388 -0.20143971 0.21181938 0.1806528 -0.124536246 -0.0016923803 0.082654156 0.024510806 0.22672737 -0.077396706 -0.06913401 0.36464083 -0.19331281 0.0072680907 -0.21151537 -0.11769658 -0.36461142 0.05156373 0.19492032
28 0.24558367 -0.2847972 0.10334271 0.0702938 0.3179876 0.09073945 -0.10543845 -0.06400616 0.0680008 0.018263578 0.018024521 -0.18612234 -0.16166095 0.23341362 -0.019121975 -0.1340143 0.24855162 -0.0019913039 -0.0034409582 -0.04832663 0.13480493 0.29466203 0.099612586 0.13249719 0.035184737 0.020636095 -0.063280396 -0.18924667 -0.22872004 0.10389936 0.09246878 -0.03403182 -0.13347697 -0.010016637 -0.010403099 0.013807526 0.22148685 -0.055284735 -0.16462852 -0.2873641 -0.20145358 0.08793977 -0.15100437 -0.26394275 -0.012684721 0.13850029 0.08247399 -0.21808057 0.0026109917 0.1807616 0.23789996 -0.097054824 0.066866554 0.21848696 0.058260042 -0.21176296 -0.11625526 -0.18173717 0.033850763 0.25667232 -0.062060986 -0.08216767 -0.1502877 -0.0031425436 -0.25085273 -0.06110985 0.03786807 0.112320855 -0.29003945 -0.22596505 0.052087944 -0.103054464 -0.39495626 -0.07669143 0.25242963 -0.047931485 -0.09753757 0.14226279 0.1332085 -0.12126093 0.04696345 -0.32386625 0.13889275 0.0116397245 0.117052406 -0.012466073 0.22325954 0.0628871 0.15073651 -0.030694352 0.13139865 -0.21776432 0.12829617 -0.021183325 -0.13231884 0.011911177 -0.14589809 0.08450729 0.02001196 0.16285184 -0.34578198 -0.03400558 0.08149347 -0.07569086 -0.019944217 0.25966144 -0.041846868 0.2974062 -0.10923912 0.17654812 -0.18130049 -0.25139734 -0.1431229 -0.1660539 -0.04931112 -0.089966565 -0.3868364 0.10851967 -0.08134668 0.13025537 0.14254306 -0.08452948 -0.06467222 0.08418623 -0.13216358 -0.032087203 -0.19320342 0.044540778
366 0.023548646 -0.19707267 0.05148976 0.09584919 0.034626465 0.12412199 0.06627328 -0.22024634 0.013307218 -0.09297297 -0.0026051668 -0.05255544 -0.06148651 0.38285467 0.0680512 -0.17827053 0.057245784 0.29816753 0.1803643 -0.19095905 0.015597803 0.27967316 0.07551021 -0.065575495 0.29238582 0.18746454 0.018679475 0.024492517 0.18731622 -0.27003935 0.10107743 -0.004144882 -0.07238828 -0.20902133 -0.1189596 0.1983958 0.1292619 0.008210365 0.11888086 -0.36427537 -0.08134279 0.1224415 -0.090748906 -0.10224195 0.12723759 0.3473493 0.12888561 0.051820043 0.28492787 -0.07441737 0.08553837 -0.09170438 0.2531653 0.10955379 -0.10345347 0.0022156835 0.012467404 -0.10761974 0.11682059 0.21560423 0.085026495 -0.15675205 -0.10928379 -0.09434073 -0.13781242 0.40458027 0.027356107 -0.07252263 -0.23513713 0.04947695 0.062219884 -0.08464152 -0.0069670924 -0.13648088 0.17256518 -0.02278474 0.116079874 -0.057823583 0.07605589 0.06320501 -0.058896337 -0.2508132 0.1652128 0.12460151 0.009815556 -0.16896622 0.23206642 0.0036036987 0.1413621 -0.25279185 0.014605237 0.071769804 0.27050284 0.14221072 0.04222525 -0.032585658 0.10497739 -0.08403302 -0.014853751 0.08718515 -0.2544747 -0.24379207 0.10004582 -0.04289673 -0.064944364 0.080000944 -0.0019818237 0.058294494 -0.17544483 0.049236577 -0.2111059 -0.13955064 0.047684044 0.0046273656 0.06258847 0.04955528 -0.19089341 0.103846185 -0.15903609 0.1152357 0.12793203 0.0810814 0.056956466 -0.042055923 -0.20123348 -0.19901463 -0.05923007 0.16629127
303 0.1706038 -0.1813166 0.0002894505 -0.10395334 0.008252893 0.18533795 -0.06386138 -0.1380021 0.07179642 0.00607178 0.018295886 -0.18079409 -0.12063021 0.18698575 0.006005194 -0.34372085 0.17029451 -0.08277805 0.03422533 -0.2241892 -0.02072976 0.2948301 0.14040259 0.07055886 0.14581993 0.08376299 -0.13950923 0.053269465 0.046587076 0.026597865 0.040457044 -0.062352266 -0.040084377 -0.041582644 -0.062054556 -0.02591235 0.1427309 -0.06978604 0.07980951 0.013055958 -0.07022649 0.011821161 0.30398816 -0.2055997 0.1327801 0.13489963 0.017858582 -0.18654814 -0.070365265 0.11677559 -0.033292454 0.026566977 0.13189651 0.27963084 0.11372757 -0.026304798 -0.051879622 -0.15881415 0.21623771 0.35258606 -0.088094346 -0.0152839925 -0.15979159 0.01729736 -0.07960232 0.1566067 -0.12360942 -0.18999907 -0.19939815 -0.10503012 0.22288309 0.015235596 0.05630147 0.029111687 0.3215061 0.07864889 -0.3353366 0.20877732 0.1530373 -0.14231196 0.2535595 -0.10221073 0.07712115 0.06254976 0.13860525 -0.0038396083 0.26961404 -0.20705281 0.12739147 0.1345966 0.040229976 0.13115734 -0.061692115 -0.1868791 -0.2269222 -0.0037953015 -0.21698132 -0.04034701 -0.13402708 0.31915724 0.02870694 0.121928565 0.18642853 0.19191286 -0.21606474 0.32312298 -0.23538807 0.18705404 -0.034200136 0.23219478 -0.25382605 0.055644225 -0.07324932 -0.004004523 -0.21805304 -0.09035187 -0.20424943 0.30474535 -0.084247716 -0.04902634 0.1946992 -0.12512977 -0.009196628 0.34828332 0.009919366 -0.18013504 -0.15315121 0.12578245
419 0.2474851 -0.14647423 0.011023785 -0.051880993 0.25835675 -0.12816049 -0.030540831 -0.0031829912 0.091813356 -0.004051461 -0.019034514 -0.113414966 -0.23941545 0.27413937 0.1336743 -0.1397334 0.31832972 -0.024244519 0.0465589 -0.14111334 0.08737231 0.10908904 -0.07861684 0.0008228135 0.24880959 -0.017482845 0.048185848 -0.24070469 0.06464473 -0.13939473 0.2562509 0.05664577 0.06692576 0.04754409 0.11186412 0.011109845 0.26571468 -0.055103175 0.02006229 -0.06932102 -0.2279337 0.1217248 -0.3594111 -0.23257495 0.04624952 0.08562264 -0.046625838 -0.22544955 -0.02691013 0.09543136 0.0041578775 -0.01871612 -0.15421325 0.068728454 0.034277044 -0.027726369 -0.03300046 -0.3859542 0.02575935 0.18712455 -0.17739412 0.025814945 -0.17482153 -0.11811954 -0.10563798 0.071958184 -0.10207722 -0.17848943 -0.25024655 -0.25795907 -0.07645257 -0.12452447 -0.017607966 -0.12788993 0.3313832 0.16294901 -0.11080406 0.022163115 0.07990218 -0.24504276 -0.05379441 -0.032058097 -0.054433975 0.17208323 0.09785411 -0.18089516 0.15157257 -0.3303629 0.20772627 -0.21750128 0.0782579 -0.20485891 0.29772282 -0.010331537 -0.036727075 0.10480292 0.13135126 -0.0393837 -0.15956771 0.045474894 -0.109339245 -0.14793059 0.29328626 0.1350305 0.004853777 0.06838538 -0.02605916 0.19476143 -0.0031734754 0.17168541 -0.09933423 -0.12059833 0.017446112 -0.043834675 -0.1812751 0.2094817 -0.25993112 0.18703942 0.060436983 0.15139508 0.04379514 -0.050744053 -0.042601105 0.15679967 -0.15795039 -0.29455996 0.1630691 0.037495814
546 0.094271235 -0.32582998 -0.013158811 -0.004526718 0.0017647967 0.0563307 -0.11355813 0.0013576621 -0.04163331 -0.073006414 -0.040338434 -0.11895789 -0.037271325 0.19995913 0.17817578 -0.0672577 0.02640778 0.13542785 0.07855744 -0.2058269 0.01860152 -0.034936134 0.11815919 -0.0678977 0.3821055 0.01636763 -0.22504058 -0.09071768 -0.0032068682 0.008748596 0.032130867 0.030985909 -0.012666308 0.018317118 -0.07062429 0.13231085 0.18033303 -0.1955036 0.18059441 -0.13829774 -0.04522858 0.022563903 -0.09252614 -0.22740366 -0.13698457 0.12292894 0.08776156 0.01100405 0.2151027 -0.04023076 -0.025380403 -0.034804232 0.31673223 -0.07511475 0.087820075 -0.04269803 -0.028409552 -0.14435896 0.107978515 0.27650243 0.16291057 -0.13096182 -0.12419186 0.12971726 -0.032877523 0.08181511 -0.037660617 -0.06887376 -0.2966662 0.11429754 0.0975912 -0.018745419 0.079583175 -0.0020428272 0.26901954 0.08322494 0.02200096 0.32855174 0.045166995 0.16838866 0.1720583 -0.108189166 0.03651827 0.16792357 0.004437079 -0.025753874 0.048965853 -0.3439221 -0.20834877 0.014383153 0.0875932 0.09553817 0.43671763 -0.025248291 -0.24239002 0.21073446 -0.08261044 -0.30230284 0.007678669 0.07838416 -0.10040468 -0.28747886 0.1619226 0.2454412 0.05210806 -0.09795899 -0.14481753 0.044060662 -0.10366443 0.33337352 -0.12366003 0.13523482 0.18782285 -0.013511707 0.013172053 -0.030254563 -0.39065582 0.3218959 -0.20783433 0.24689275 0.0032669122 0.32439682 0.03255893 0.26008478 -0.013816527 -0.14996402 -0.20946835 0.1054503
170 0.09493676 -0.24589458 0.17185962 0.11857711 0.15054674 0.2881959 -0.037029516 0.08442304 -0.09554602 -0.30232558 0.050752144 -0.14325297 -0.1142515 0.054662663 -0.15694867 -0.35305628 0.34515882 -0.21738787 0.1739746 -0.12793763 -0.08061181 0.031004002 0.14757963 0.0288186 0.16887136 -0.14782287 -0.034284346 -0.1649652 -0.2669797 -0.0016615521 0.2080868 0.10453089 0.19609414 -0.2467902 -0.13044322 -0.10873197 0.28426674 -0.26144108 -0.065188386 -0.13070014 -0.17873353 -0.00959303 -0.3070089 -0.085371025 0.03765578 -0.051950634 0.033810034 -0.49010918 -0.17595543 0.08043455 0.004278233 0.10183237 0.13476564 0.026058972 0.121157415 -0.18114594 0.08703136 -0.30860895 -0.047186837 0.30299732 -0.09676398 -0.11133735 0.015252142 0.094181515 -0.04156546 0.004322087 0.056824192 0.17475198 -0.19920385 -0.14768735 -0.08998771 -0.21158484 -0.08712758 0.04588149 0.19193402 0.14119963 -0.08509818 0.20040806 0.08896704 -0.15590687 -0.00039521288 -0.49707955 0.10033367 0.19772592 0.071780145 -0.041392308 0.2799625 -0.10990041 0.028572662 -0.039791778 0.032586947 -0.060489193 0.15069066 0.003954333 0.0030145983 -0.11553757 0.16775112 -0.08215835 0.0022076855 0.031008711 -0.23311256 -0.11596319 0.2887519 -0.041407328 0.02225243 0.14199331 0.1421752 0.13847558 0.046923812 0.095456384 -0.03637017 0.16366613 0.14310268 -0.17491652 -0.14255701 -0.18254377 -0.2086216 0.050669856 -0.16559497 0.02637453 0.40018594 -0.16424543 -0.012330182 -0.102685496 -0.22168437 -0.19533132 -0.14241599 0.09751254
971 0.12097848 0.0017415608 0.22041214 0.3238324 -0.11182448 0.097599566 0.007797809 -0.11332872 0.24710844 -0.27732617 0.020300584 -0.19296406 0.007315567 0.13368118 -0.0008903233 0.12901117 -0.18744832 -0.032189976 0.078385085 -0.1872351 -0.08162503 0.2834661 -0.047017194 -0.12530097 -0.0048839874 -0.050683353 0.025349807 0.071244165 -0.20239119 -0.13966885 0.13825214 -0.116361074 -0.069376856 0.058915813 0.061082866 -0.05374761 0.016416902 -0.10337462 0.102839984 -0.41403005 0.25256488 -0.064993635 0.04849059 -0.16050197 -0.08684351 0.6130823 0.42737058 -0.27767345 -0.068614446 -0.079593405 0.26578572 -0.09672443 0.09975138 0.052176137 -0.14328206 0.1756208 0.07308461 -0.033985786 -0.11098066 -0.06399023 0.22090895 0.045895055 -0.369936 0.394083 -0.41194412 0.12624371 0.15077633 -0.025497427 0.10197637 -0.2143488 -0.099543475 0.052343637 -0.1355337 0.029713241 0.26316702 0.1569033 -0.3537865 0.41633147 -0.2624594 -0.2623077 0.040026184 0.15624513 0.21670802 0.030576963 -0.14315398 -0.57533616 0.32493824 -0.23501259 -0.13922264 -0.091087066 -0.10858911 -0.13435692 0.3306176 0.2246434 -0.09908264 0.09982215 0.11613142 -0.23616794 -0.055503212 0.45211184 -0.37899604 -0.1377643 -0.23228037 0.024901519 0.08827591 -0.089055754 -0.37847602 0.013159576 -0.04909033 0.30781382 -0.160383 0.25110662 0.23787594 0.13371396 -0.17902535 -0.033321545 0.08002666 0.18309298 0.09121137 0.070209794 0.11100973 -0.14376768 0.3784059 0.12168735 0.15803343 -0.08712342 -0.1269792 0.3091744
329 0.15776728 -0.2514169 0.026810903 0.061982784 0.199581 0.07465896 -0.0049943123 0.032200806 0.09696173 0.111116 -0.095884055 -0.23320998 -0.2740182 0.08307697 -0.061802138 -0.056884736 0.045999546 -0.09439644 0.23607525 -0.005063874 -0.058987826 0.20007423 0.19579004 0.016775293 0.24815916 0.19800241 -0.07130497 0.02758287 -0.01341385 -0.33712786 0.11927886 -0.1834564 -0.10758942 -0.08540426 -0.10979256 0.15629992 0.27606687 -0.1777176 -0.1262894 -0.07650035 0.016687406 0.018392213 -0.17657626 -0.46290085 0.04129148 0.3039638 0.037562024 -0.082514524 -0.109409474 0.21712169 0.188372 -0.055833418 0.07889171 0.17901348 -0.023364287 -0.021489972 -0.09904917 -0.20024829 0.013551032 0.099093 0.038819317 -0.07975637 -0.15515026 -0.083409555 -0.12224456 -0.09772488 -0.22874819 -0.031914018 -0.21690351 -0.2951798 0.3402713 -0.2010068 -0.18035986 -0.2770022 0.1723156 0.0053797765 -0.069093674 -0.053938914 -0.024146916 0.021726348 0.10279238 -0.07311031 0.15031375 0.07094156 0.10712512 -0.050211657 -0.018085495 -0.013554667 0.13625906 0.033120964 0.10234883 -0.09439143 -0.005522804 0.059634168 0.07208182 -0.0021798364 -0.026733417 0.011382939 -0.37005162 0.43709114 -0.010500966 -0.1344091 0.12246893 0.035937965 -0.035897706 0.06048691 -0.17022525 0.22766562 -0.07825937 0.06524253 -0.23152561 -0.024810715 -0.011749178 -0.09341526 -0.3649402 0.19355676 -0.39661327 0.22801527 -0.072949044 0.11409073 0.2169892 -0.06013467 -0.06531118 0.4636612 -0.30635655 -0.1349179 -0.051023297 0.17866632
932 0.24041457 -0.29825288 0.045642998 -0.21849638 0.12410278 0.0045345756 0.116870135 -0.28709868 0.039165225 0.07147372 0.02360247 -0.12604898 -0.012481445 0.25617242 -0.07765739 -0.24992031 0.118863486 0.124874294 0.17062685 -0.09986175 -0.18546934 0.14919041 -0.014817675 0.04420278 0.37705702 0.17974733 -0.10197894 -0.13281202 -0.109930634 0.02592662 0.077849776 0.062311064 -0.0068448684 -0.03666244 -0.16174026 -0.018310597 0.37446633 -0.14760935 0.054502267 -0.2506101 -0.09310241 0.0027063836 -0.06025826 -0.29364166 -0.02723568 0.15256354 0.23698777 0.006659023 0.23945013 0.014226053 0.09983801 0.023154315 0.09368242 0.015671032 -0.023883674 -0.18704142 0.030607205 -0.27060914 0.031809893 0.33905238 0.04709717 -0.0007457547 -0.28790614 0.028406333 0.049200147 0.12142278 -0.102066405 -0.06272376 -0.31598827 -0.10115665 0.040568214 -0.13655458 -0.09113013 -0.36709446 0.14731377 0.18537636 -0.076889776 0.058968987 0.3248259 0.12178844 0.08169593 -0.18603021 0.17646308 0.14972693 -0.051749542 -0.2018417 0.20569527 -0.110497855 -0.08469112 -0.041422673 -0.13990201 0.038346324 0.056434102 -0.08744698 -0.04430092 0.13194697 0.021446858 -0.018328063 0.09310227 -0.044228595 -0.071230106 -0.19588456 0.2620701 -0.03161175 0.08671516 0.094744444 -0.14099741 0.21652293 0.13595569 0.29545072 -0.31479293 -0.059593167 0.24146402 -0.13581324 -0.050206076 0.09115451 -0.16784973 0.03834303 -0.0648278 0.083884075 0.15990484 -0.19827232 0.064936176 0.16564117 -0.19377981 -0.33895805 -0.1535444 0.16586299
2 0.29933727 -0.08274853 0.3480435 -0.013569487 -0.15065998 0.1868948 -0.09954036 -0.25046667 0.15776348 0.048245814 -0.18859212 -0.093519345 0.000580517 -0.165057 -0.23438677 -0.29176202 -0.0056952387 -0.04730155 0.17559198 -0.17928645 0.03626645 0.10511033 -0.09045084 -0.15058993 0.21533366 0.004639674 -0.12141708 0.028145874 -0.051226724 0.027446855 0.10822057 -0.2710638 -0.2574665 -0.26254654 -0.2062697 -0.001686626 0.12564285 -0.0034981116 -0.050112676 -0.24854529 0.06320463 0.124503955 0.28032055 -0.05663918 0.17029926 0.083272815 0.058935344 -0.18468016 0.004981885 0.020186156 0.1574661 -0.2641518 0.21145621 0.3836981 0.15558466 -0.08397709 0.070040554 0.12039167 0.19723883 0.22112718 -0.04566145 0.01574583 -0.20153274 0.12140154 -0.028584488 0.16969475 -0.042367928 -0.16570851 -0.08186023 -0.12750837 0.078344904 0.031417653 0.08319544 -0.180599 0.2891223 0.060844727 -0.034660798 0.14845902 0.20596766 0.038368482 0.0714611 -0.03349584 -0.044126205 0.16002238 0.102746315 -0.21978375 0.34296116 -0.2144435 0.1403838 -0.2914506 0.07105164 0.22490254 0.049634635 -0.05453395 -0.14416537 0.28940162 -0.18906039 -0.2942421 -0.18371713 0.12937604 -0.06102158 -0.025996272 0.32045832 0.169824 -0.21044049 0.26411185 -0.14466283 0.17165864 -0.08760748 0.026786665 -0.27671367 0.19934092 0.1846938 -0.14389281 -0.09924036 -0.024317954 -0.07348553 0.23592412 0.024475284 0.054177087 0.14715348 -0.096936576 0.15221341 0.046680134 -0.23467858 -0.14412513 0.15908293 0.34038275
4 0.2083117 -0.08373542 0.27524772 0.008891067 -0.042266995 0.23900752 -0.03901619 -0.16457266 0.14742182 0.11135101 -0.052813675 -0.10936224 -0.17519325 0.07610716 -0.3276549 -0.39457884 0.05684894 -0.048635595 0.26587453 -0.100099266 -0.10997047 0.15408704 -0.016989386 -0.07482333 0.25977078 -0.014061723 -0.11563922 0.144691 0.08697986 -0.024145052 0.12386476 -0.11400231 -0.1017719 -0.24715446 -0.18705802 -0.11817902 0.12732711 0.0195646 0.0029552067 -0.1936848 0.12826897 0.09884171 0.34283972 -0.08601324 0.2592998 0.077043906 0.007067357 -0.3529445 -0.0067425785 0.072989486 0.14193545 -0.2156962 0.28443787 0.30506164 0.0844987 0.035092443 0.048732728 0.0744991 0.14160167 0.19808862 0.058368877 -0.060560536 -0.2034527 0.06632863 -0.031787433 0.10391906 0.024817197 -0.21273783 -0.11236152 -0.06549952 0.14501756 0.0842249 0.04251002 -0.18262376 0.2651943 0.09564225 -0.012397717 0.17240697 0.18613757 0.15343954 0.11942841 -0.12152325 -0.028479543 0.1868644 0.13684589 -0.29074067 0.4316667 -0.15632832 0.08294307 -0.2678222 0.16891998 0.18037789 0.1029584 0.058857724 -0.22032711 0.12720707 -0.11087201 -0.20895778 -0.014094315 0.28871375 -0.16905244 -0.07700478 0.38864437 0.22019696 -0.11751747 0.19534653 -0.20388444 0.16988719 -0.078103855 0.09876479 -0.17731525 0.046474442 0.20694342 -0.2012621 -0.11250844 -0.0264135 -0.071497194 0.27206552 0.052026525 -0.05391505 0.17233813 -0.14429082 0.08352178 -0.056870602 -0.1628492 -0.23885421 0.13714354 0.26998088
365 0.059894986 -0.11752091 -0.15975487 -0.110222995 0.29636058 0.3542829 -0.03467266 -0.21891953 0.28379974 0.00021923082 0.06269693 -0.12737314 -0.16750309 0.138167 -0.045528036 -0.15678944 0.22727865 -0.045167543 -0.030318739 -0.13027966 0.17692141 0.33858728 0.01579223 -0.10120533 0.22435011 0.23397486 -0.049811084 -0.27700198 -0.14964733 -0.05856933 0.24875775 -0.00095173996 -0.031381883 0.19856885 0.03883155 0.08474049 0.5044799 -0.06218946 0.15862137 -0.01881477 -0.08767629 0.22018115 -0.22710823 -0.20072687 -0.046301816 0.05549187 0.0960764 -0.10648994 -0.028776834 0.04265499 -0.113454536 0.047914535 0.038012743 -0.032451294 -0.19966988 0.14492892 -0.08680053 -0.32604253 0.15057918 0.15516624 -0.013022535 -0.13435516 -0.09439319 0.1883802 -0.1452929 0.069225796 -0.27016068 -0.11703457 -0.38676286 -0.060329113 0.12791005 0.10113574 -0.0658019 -0.104206145 0.25989154 0.07375712 -0.12531175 0.11534778 0.07775114 -0.06025585 -0.09048935 0.032453276 0.19518828 0.0014594952 -0.06004869 -0.05894606 0.29661107 -0.17789286 0.14129375 -0.037884858 -0.06740523 -0.074026324 0.18825337 0.1425641 0.005736427 -0.008133 -0.116328634 -0.040500294 -0.14653364 0.4225483 -0.21936157 -0.13150395 0.17853193 -0.02106347 -0.00090989185 -0.0138960015 -0.095963344 -0.12218598 0.009627832 0.10982149 -0.16957425 0.093638025 0.0023523865 -0.102038026 -0.19289288 0.0978584 -0.09418944 0.1584991 -0.07042182 -0.050925795 -0.050820056 -0.19655769 -0.0013819555 0.07392677 -0.23513462 -0.27714026 -0.029353326 0.17341238
215 0.024246046 0.006207524 0.027329117 0.06681374 0.002817869 0.1782031 -0.17705643 -0.31261903 0.20492081 -0.13283925 -0.037627462 0.052381694 -0.18891573 0.18634433 0.049392436 -0.20876072 0.09081331 0.0557162 0.17679676 -0.16141479 -0.041747473 -0.08586482 0.15870655 -0.18905106 0.3296061 0.4183364 0.047405917 -0.42710614 0.15863773 -0.05994891 0.16398098 0.23335022 0.0237457 -0.21071242 0.017710807 -0.051560506 0.2140469 -0.32841623 0.148907 -0.0827284 -0.13193133 -0.01120187 0.008821637 -0.03447218 0.04950214 0.14349827 0.12382578 -0.119986236 0.24511524 0.024425216 -0.11093436 -0.11183633 0.23293737 0.115209825 0.049504675 0.021655446 -0.16209449 -0.026486913 0.00786974 0.16117239 0.08217722 -0.19190705 0.016017243 0.13950637 -0.20751514 0.15945554 0.05444724 -0.09935286 -0.23095213 0.026900517 0.22533602 0.04898151 -0.14256358 -0.10572698 0.061138712 0.12695701 0.010547949 0.13911387 0.33580816 -0.17038444 -0.15948449 -0.30954912 0.10832411 0.05182386 -0.06790123 -0.14060007 0.052430667 -0.03961244 0.13441958 -0.1601708 -0.0028903333 0.025939137 0.012791438 -0.027448675 0.19045222 -0.2264702 0.21506609 0.054485887 -0.09961491 0.26908314 0.17894612 -0.22490646 0.33115262 -0.012343862 -0.11377949 -0.24308248 0.013989505 0.13384075 -0.15185742 0.012386087 -0.057959735 0.11558578 -0.16755146 0.09859871 -0.06559318 0.12546942 -0.10964765 0.12699358 -0.07817996 -0.0011602526 -0.0155575955 -0.09753116 -0.073260725 -0.0076517663 -0.018363118 -0.28823164 -0.13418067 0.046372443
